{"learner":{"attributes":{"scikit_learn":"{\"_estimator_type\": \"regressor\"}"},"feature_names":[],"feature_types":[],"gradient_booster":{"model":{"cats":{"enc":[],"feature_segments":[],"sorted_idx":[]},"gbtree_model_param":{"num_parallel_tree":"1","num_trees":"100"},"iteration_indptr":[0,1,2,3,4,5,6,7,8,9,10,11,12,13,14,15,16,17,18,19,20,21,22,23,24,25,26,27,28,29,30,31,32,33,34,35,36,37,38,39,40,41,42,43,44,45,46,47,48,49,50,51,52,53,54,55,56,57,58,59,60,61,62,63,64,65,66,67,68,69,70,71,72,73,74,75,76,77,78,79,80,81,82,83,84,85,86,87,88,89,90,91,92,93,94,95,96,97,98,99,100],"tree_info":[0,0,0,0,0,0,0,0,0,0,0,0,0,0,0,0,0,0,0,0,0,0,0,0,0,0,0,0,0,0,0,0,0,0,0,0,0,0,0,0,0,0,0,0,0,0,0,0,0,0,0,0,0,0,0,0,0,0,0,0,0,0,0,0,0,0,0,0,0,0,0,0,0,0,0,0,0,0,0,0,0,0,0,0,0,0,0,0,0,0,0,0,0,0,0,0,0,0,0,0],"trees":[{"base_weights":[7.424596E-8,-9.868223E0,4.54832E1,-1.799414E1,2.1179352E0,4.067003E1,2.5040575E2,-2.2732668E1,-1.3373583E1,-2.8302839E0,1.0162445E1,3.063966E1,6.733675E1,1.8103723E2,3.7917398E2,-2.5602762E1,-2.05721E1,-1.5668912E1,-1.087094E1,-5.941649E0,4.7603576E-3,7.308025E0,1.4293878E1,2.4282494E1,3.9476833E1,5.839745E1,8.4450714E1,2.899257E2,1.6637648E2,3.5973068E2,8.3244194E1,-2.7622946E1,-2.4322113E1,-2.1615376E1,-1.8959791E1,-1.6642103E1,-1.3981601E1,-1.2143538E1,-9.6413E0,-7.117005E0,-4.758717E0,-1.6722397E0,1.8487148E0,5.329238E0,9.061072E0,1.228562E1,1.5687518E1,2.10587E1,2.8068214E1,3.5544727E1,4.419488E1,5.4187206E1,6.474595E1,7.626636E1,9.334299E1,6.153548E1,2.611481E1,1.9907135E2,1.3179675E2,5.9221497E2,3.258195E2,-2.8104632E0,-2.6591926E0,-2.4844398E0,-2.3603168E0,-2.2609267E0,-2.1030042E0,-1.9598799E0,-1.8604962E0,-1.7602628E0,-1.6084048E0,-1.4623698E0,-1.3649533E0,-1.2632552E0,-1.1617582E0,-1.0010637E0,-8.582229E-1,-7.60633E-1,-6.618883E-1,-5.599428E-1,-4.2857432E-1,-2.6142335E-1,-1.13880396E-1,9.5897906E-2,3.022962E-1,4.374197E-1,5.944902E-1,8.0643576E-1,9.862308E-1,1.1373967E0,1.2681344E0,1.4828767E0,1.6946335E0,1.9307503E0,2.2679768E0,2.6232605E0,2.9732206E0,3.3609574E0,3.7622228E0,4.187336E0,4.652677E0,5.198859E0,5.7371163E0,6.149957E0,6.7145615E0,7.3242426E0,7.896447E0,8.782992E0,9.891465E0,1.6917013E1,2.7555893E1,1.5818254E1,1.1665476E1,1.2494198E1,7.6699104E1,1.0347144E1,3.437326E1],"categories":[],"categories_nodes":[],"categories_segments":[],"categories_sizes":[],"default_left":[0,0,0,0,0,0,0,0,0,0,0,0,0,0,0,0,0,0,0,0,0,0,0,0,0,0,0,0,0,0,0,0,0,0,0,0,0,0,0,0,0,0,0,0,0,0,0,0,0,0,0,0,0,0,0,0,0,0,0,0,0,0,0,0,0,0,0,0,0,0,0,0,0,0,0,0,0,0,0,0,0,0,0,0,0,0,0,0,0,0,0,0,0,0,0,0,0,0,0,0,0,0,0,0,0,0,0,0,0,0,0,0,0,0,0,0,0],"id":0,"left_children":[1,3,5,7,9,11,13,15,17,19,21,23,25,27,29,31,33,35,37,39,41,43,45,47,49,51,53,55,57,59,-1,61,63,65,67,69,71,73,75,77,79,81,83,85,87,89,91,93,95,97,99,101,103,105,107,-1,-1,109,111,113,115,-1,-1,-1,-1,-1,-1,-1,-1,-1,-1,-1,-1,-1,-1,-1,-1,-1,-1,-1,-1,-1,-1,-1,-1,-1,-1,-1,-1,-1,-1,-1,-1,-1,-1,-1,-1,-1,-1,-1,-1,-1,-1,-1,-1,-1,-1,-1,-1,-1,-1,-1,-1,-1,-1,-1,-1],"loss_changes":[6.7050172E7,1.1955999E7,2.6258668E7,1.60144E6,1.9742868E6,6.958492E6,5.389092E6,2.2343E5,2.126135E5,2.7087975E5,2.2265075E5,1.061506E6,1.08311E6,5.88722E5,1.57772E6,3.9447E4,3.4258E4,3.14905E4,2.7618E4,2.0322438E4,4.9693453E4,3.8709812E4,2.1405375E4,1.33682E5,1.45194E5,1.21449E5,1.70312E5,2.70094E5,3.73988E5,1.431112E6,0E0,2.2365E3,2.9805E3,6.7995E3,1.47325E3,6.28175E3,1.3085E3,2.092375E3,3.441875E3,1.7392188E3,2.8787344E3,4.226004E3,7.9937656E3,3.0615E3,4.6505625E3,9.9796875E2,4.669625E3,1.64415E4,1.466625E4,1.61035E4,1.7497E4,1.67375E4,1.0353E4,4.619E3,2.7067E4,0E0,0E0,3.65056E5,5.146575E4,1.945874E6,6.8933E5,0E0,0E0,0E0,0E0,0E0,0E0,0E0,0E0,0E0,0E0,0E0,0E0,0E0,0E0,0E0,0E0,0E0,0E0,0E0,0E0,0E0,0E0,0E0,0E0,0E0,0E0,0E0,0E0,0E0,0E0,0E0,0E0,0E0,0E0,0E0,0E0,0E0,0E0,0E0,0E0,0E0,0E0,0E0,0E0,0E0,0E0,0E0,0E0,0E0,0E0,0E0,0E0,0E0,0E0,0E0,0E0],"parents":[2147483647,0,0,1,1,2,2,3,3,4,4,5,5,6,6,7,7,8,8,9,9,10,10,11,11,12,12,13,13,14,14,15,15,16,16,17,17,18,18,19,19,20,20,21,21,22,22,23,23,24,24,25,25,26,26,27,27,28,28,29,29,31,31,32,32,33,33,34,34,35,35,36,36,37,37,38,38,39,39,40,40,41,41,42,42,43,43,44,44,45,45,46,46,47,47,48,48,49,49,50,50,51,51,52,52,53,53,54,54,57,57,58,58,59,59,60,60],"right_children":[2,4,6,8,10,12,14,16,18,20,22,24,26,28,30,32,34,36,38,40,42,44,46,48,50,52,54,56,58,60,-1,62,64,66,68,70,72,74,76,78,80,82,84,86,88,90,92,94,96,98,100,102,104,106,108,-1,-1,110,112,114,116,-1,-1,-1,-1,-1,-1,-1,-1,-1,-1,-1,-1,-1,-1,-1,-1,-1,-1,-1,-1,-1,-1,-1,-1,-1,-1,-1,-1,-1,-1,-1,-1,-1,-1,-1,-1,-1,-1,-1,-1,-1,-1,-1,-1,-1,-1,-1,-1,-1,-1,-1,-1,-1,-1,-1,-1],"split_conditions":[3.2E1,1.4666667E1,9.0666664E1,8E0,2.2273333E1,5.2666668E1,1.3E1,4.6666665E0,1.0846666E1,1.8E1,2.7333334E1,4.1333332E1,6.7333336E1,2E0,6.54E2,2.6666667E0,6.346667E0,1E1,1.2666667E1,1.5906667E1,2E1,2.4666666E1,2.9333334E1,3.6666668E1,4.6666668E1,6E1,7.5333336E1,9E0,2E0,1.8E1,8.3244194E1,1.8266667E0,4E0,5.3333335E0,7.306667E0,8.666667E0,1.02E1,1.2E1,1.4E1,1.5333333E1,1.6666666E1,1.8666666E1,2.1333334E1,2.3333334E1,2.6E1,2.8E1,3.0666666E1,3.4E1,3.8666668E1,4.4E1,4.9333332E1,5.6666668E1,6.2666668E1,7.0666664E1,8.2E1,6.153548E1,2.611481E1,8.8E1,6E0,7E1,7E1,-2.8104632E0,-2.6591926E0,-2.4844398E0,-2.3603168E0,-2.2609267E0,-2.1030042E0,-1.9598799E0,-1.8604962E0,-1.7602628E0,-1.6084048E0,-1.4623698E0,-1.3649533E0,-1.2632552E0,-1.1617582E0,-1.0010637E0,-8.582229E-1,-7.60633E-1,-6.618883E-1,-5.599428E-1,-4.2857432E-1,-2.6142335E-1,-1.13880396E-1,9.5897906E-2,3.022962E-1,4.374197E-1,5.944902E-1,8.0643576E-1,9.862308E-1,1.1373967E0,1.2681344E0,1.4828767E0,1.6946335E0,1.9307503E0,2.2679768E0,2.6232605E0,2.9732206E0,3.3609574E0,3.7622228E0,4.187336E0,4.652677E0,5.198859E0,5.7371163E0,6.149957E0,6.7145615E0,7.3242426E0,7.896447E0,8.782992E0,9.891465E0,1.6917013E1,2.7555893E1,1.5818254E1,1.1665476E1,1.2494198E1,7.6699104E1,1.0347144E1,3.437326E1],"split_indices":[0,0,0,0,0,0,2,0,0,0,0,0,0,2,0,0,0,0,0,0,0,0,0,0,0,0,0,3,3,2,0,0,0,0,0,0,0,0,0,0,0,0,0,0,0,0,0,0,0,0,0,0,0,0,0,0,0,1,2,1,1,0,0,0,0,0,0,0,0,0,0,0,0,0,0,0,0,0,0,0,0,0,0,0,0,0,0,0,0,0,0,0,0,0,0,0,0,0,0,0,0,0,0,0,0,0,0,0,0,0,0,0,0,0,0,0,0],"split_type":[0,0,0,0,0,0,0,0,0,0,0,0,0,0,0,0,0,0,0,0,0,0,0,0,0,0,0,0,0,0,0,0,0,0,0,0,0,0,0,0,0,0,0,0,0,0,0,0,0,0,0,0,0,0,0,0,0,0,0,0,0,0,0,0,0,0,0,0,0,0,0,0,0,0,0,0,0,0,0,0,0,0,0,0,0,0,0,0,0,0,0,0,0,0,0,0,0,0,0,0,0,0,0,0,0,0,0,0,0,0,0,0,0,0,0,0,0],"sum_hessian":[1.49384E5,1.22752E5,2.6632E4,7.3156E4,4.9596E4,2.6022E4,6.1E2,3.6115E4,3.7041E4,3.0708E4,1.8888E4,1.8911E4,7.111E3,3.98E2,2.12E2,1.5506E4,2.0609E4,1.9318E4,1.7723E4,1.464E4,1.6068E4,1.1172E4,7.716E3,1.1001E4,7.91E3,4.674E3,2.437E3,4.5E1,3.53E2,2.05E2,7E0,6.008E3,9.498E3,1.2505E4,8.104E3,1.2246E4,7.072E3,8.705E3,9.018E3,7.341E3,7.299E3,8.415E3,7.653E3,5.25E3,5.922E3,3.165E3,4.551E3,5.945E3,5.056E3,4.319E3,3.591E3,2.816E3,1.858E3,1.274E3,1.163E3,2E0,4.3E1,1.79E2,1.74E2,2.4E1,1.81E2,4.077E3,1.931E3,5.482E3,4.016E3,4.621E3,7.884E3,2.874E3,5.23E3,4.489E3,7.757E3,2.396E3,4.676E3,4.499E3,4.206E3,6.68E3,2.338E3,3.696E3,3.645E3,2.624E3,4.675E3,3.041E3,5.374E3,4.355E3,3.298E3,2.061E3,3.189E3,2.644E3,3.278E3,9.67E2,2.198E3,2.713E3,1.838E3,2.864E3,3.081E3,2.412E3,2.644E3,2.245E3,2.074E3,1.809E3,1.782E3,1.676E3,1.14E3,8.01E2,1.057E3,6.14E2,6.6E2,5.93E2,5.7E2,1.31E2,4.8E1,6E1,1.14E2,7E0,1.7E1,1.4E1,1.67E2],"tree_param":{"num_deleted":"0","num_feature":"5","num_nodes":"117","size_leaf_vector":"1"}},{"base_weights":[2.927426E-3,-8.881588E0,4.095216E1,-1.6195122E1,1.9062629E0,3.6606236E1,2.2598181E2,-2.0459913E1,-1.2036507E1,-2.9650006E0,8.5306E0,2.7577057E1,6.0611183E1,1.6333353E2,3.422761E2,-2.3043152E1,-1.8515287E1,-1.4102342E1,-9.784087E0,-5.347649E0,-4.6250278E-1,5.549759E0,1.2263882E1,2.1855135E1,3.553117E1,5.2562798E1,7.601955E1,2.9886896E2,1.5308476E2,3.2440768E2,7.596033E1,-2.486156E1,-2.1890411E1,-2.000488E1,-1.7599955E1,-1.5457289E1,-1.3098315E1,-1.0929462E1,-8.677376E0,-6.405498E0,-4.2829814E0,-1.5050606E0,1.1253779E0,3.8139305E0,7.1316524E0,1.0493872E1,1.4119465E1,1.8638191E1,2.4960653E1,3.1991905E1,3.977786E1,4.7812225E1,5.717871E1,6.8651665E1,8.4024734E1,5.7433117E1,2.5385873E2,1.7941129E2,1.2786899E2,5.365612E2,2.9348325E2,-2.580535E0,-2.4397633E0,-2.2360413E0,-2.1243436E0,-2.0348828E0,-1.9504343E0,-1.8190571E0,-1.6744822E0,-1.5842758E0,-1.4988884E0,-1.3688229E0,-1.228487E0,-1.1369576E0,-1.0456098E0,-9.6077293E-1,-8.290836E-1,-6.845903E-1,-5.957176E-1,-4.5720014E-1,-3.1576756E-1,-1.9462936E-1,-5.011892E-2,2.7187381E-2,1.541032E-1,3.0727E-1,4.2868397E-1,6.0371035E-1,7.9605883E-1,9.706044E-1,1.1413784E0,1.3346437E0,1.5252624E0,1.7377427E0,2.0050714E0,2.3339329E0,2.6760113E0,2.9900033E0,3.3585382E0,3.7688344E0,4.1876707E0,4.5449324E0,4.9531417E0,5.4501195E0,6.0437403E0,6.5930095E0,7.1079974E0,7.9061723E0,8.904051E0,1.5155954E1,2.7185556E1,1.5238126E1,2.4856543E1,1.737594E1,1.0938707E1,1.1400955E1,6.94553E1,9.381411E0,3.0956394E1],"categories":[],"categories_nodes":[],"categories_segments":[],"categories_sizes":[],"default_left":[0,0,0,0,0,0,0,0,0,0,0,0,0,0,0,0,0,0,0,0,0,0,0,0,0,0,0,0,0,0,0,0,0,0,0,0,0,0,0,0,0,0,0,0,0,0,0,0,0,0,0,0,0,0,0,0,0,0,0,0,0,0,0,0,0,0,0,0,0,0,0,0,0,0,0,0,0,0,0,0,0,0,0,0,0,0,0,0,0,0,0,0,0,0,0,0,0,0,0,0,0,0,0,0,0,0,0,0,0,0,0,0,0,0,0,0,0,0,0],"id":1,"left_children":[1,3,5,7,9,11,13,15,17,19,21,23,25,27,29,31,33,35,37,39,41,43,45,47,49,51,53,55,57,59,-1,61,63,65,67,69,71,73,75,77,79,81,83,85,87,89,91,93,95,97,99,101,103,105,107,-1,109,111,113,115,117,-1,-1,-1,-1,-1,-1,-1,-1,-1,-1,-1,-1,-1,-1,-1,-1,-1,-1,-1,-1,-1,-1,-1,-1,-1,-1,-1,-1,-1,-1,-1,-1,-1,-1,-1,-1,-1,-1,-1,-1,-1,-1,-1,-1,-1,-1,-1,-1,-1,-1,-1,-1,-1,-1,-1,-1,-1,-1],"loss_changes":[5.4348736E7,9.684913E6,2.1408E7,1.297238E6,1.6004652E6,5.63868E6,4.39562E6,1.81E5,1.72223E5,1.704138E5,2.3381588E5,8.59963E5,8.77982E5,5.08487E5,1.341914E6,3.196E4,2.7749E4,2.6079E4,2.2372125E4,1.6462094E4,2.3080424E4,3.2066812E4,3.049525E4,1.09448E5,1.1763E5,9.978E4,1.38027E5,1.8896375E5,2.24672E5,1.194036E6,0E0,2.0015E3,2.414E3,9.5225E2,6.147E3,1.246125E3,5.159875E3,1.6948125E3,3.1636875E3,1.4088438E3,2.3597812E3,3.7268184E3,1.9599985E3,1.9410625E3,5.4992188E3,3.35275E3,3.783875E3,9.282375E3,1.56985E4,1.33955E4,1.4175E4,7.133E3,1.735E4,3.7405E3,2.19365E4,0E0,4.824125E3,2.985865E5,1.4553275E5,1.5898065E6,5.55327E5,0E0,0E0,0E0,0E0,0E0,0E0,0E0,0E0,0E0,0E0,0E0,0E0,0E0,0E0,0E0,0E0,0E0,0E0,0E0,0E0,0E0,0E0,0E0,0E0,0E0,0E0,0E0,0E0,0E0,0E0,0E0,0E0,0E0,0E0,0E0,0E0,0E0,0E0,0E0,0E0,0E0,0E0,0E0,0E0,0E0,0E0,0E0,0E0,0E0,0E0,0E0,0E0,0E0,0E0,0E0,0E0,0E0,0E0],"parents":[2147483647,0,0,1,1,2,2,3,3,4,4,5,5,6,6,7,7,8,8,9,9,10,10,11,11,12,12,13,13,14,14,15,15,16,16,17,17,18,18,19,19,20,20,21,21,22,22,23,23,24,24,25,25,26,26,27,27,28,28,29,29,31,31,32,32,33,33,34,34,35,35,36,36,37,37,38,38,39,39,40,40,41,41,42,42,43,43,44,44,45,45,46,46,47,47,48,48,49,49,50,50,51,51,52,52,53,53,54,54,56,56,57,57,58,58,59,59,60,60],"right_children":[2,4,6,8,10,12,14,16,18,20,22,24,26,28,30,32,34,36,38,40,42,44,46,48,50,52,54,56,58,60,-1,62,64,66,68,70,72,74,76,78,80,82,84,86,88,90,92,94,96,98,100,102,104,106,108,-1,110,112,114,116,118,-1,-1,-1,-1,-1,-1,-1,-1,-1,-1,-1,-1,-1,-1,-1,-1,-1,-1,-1,-1,-1,-1,-1,-1,-1,-1,-1,-1,-1,-1,-1,-1,-1,-1,-1,-1,-1,-1,-1,-1,-1,-1,-1,-1,-1,-1,-1,-1,-1,-1,-1,-1,-1,-1,-1,-1,-1,-1],"split_conditions":[3.2E1,1.4666667E1,9.0666664E1,8E0,2.2E1,5.2666668E1,1.3E1,4.6666665E0,1.0846666E1,1.8E1,2.6666666E1,4.1333332E1,6.7333336E1,1E0,6.54E2,2.6666667E0,5.82E0,9.333333E0,1.2666667E1,1.5906667E1,2E1,2.4E1,2.9333334E1,3.6E1,4.6666668E1,5.8666668E1,7.5333336E1,9E0,2E0,1.8E1,7.596033E1,1.3333334E0,4E0,5.3333335E0,7.306667E0,8.666667E0,1.02E1,1.2E1,1.3333333E1,1.5333333E1,1.7333334E1,1.9333334E1,2.0366667E1,2.2666666E1,2.5333334E1,2.8E1,3.0666666E1,3.4E1,3.8666668E1,4.3333332E1,4.9333332E1,5.5333332E1,6.2666668E1,7.0666664E1,8.2E1,5.7433117E1,1E1,8.8E1,4E0,7E1,7E1,-2.580535E0,-2.4397633E0,-2.2360413E0,-2.1243436E0,-2.0348828E0,-1.9504343E0,-1.8190571E0,-1.6744822E0,-1.5842758E0,-1.4988884E0,-1.3688229E0,-1.228487E0,-1.1369576E0,-1.0456098E0,-9.6077293E-1,-8.290836E-1,-6.845903E-1,-5.957176E-1,-4.5720014E-1,-3.1576756E-1,-1.9462936E-1,-5.011892E-2,2.7187381E-2,1.541032E-1,3.0727E-1,4.2868397E-1,6.0371035E-1,7.9605883E-1,9.706044E-1,1.1413784E0,1.3346437E0,1.5252624E0,1.7377427E0,2.0050714E0,2.3339329E0,2.6760113E0,2.9900033E0,3.3585382E0,3.7688344E0,4.1876707E0,4.5449324E0,4.9531417E0,5.4501195E0,6.0437403E0,6.5930095E0,7.1079974E0,7.9061723E0,8.904051E0,1.5155954E1,2.7185556E1,1.5238126E1,2.4856543E1,1.737594E1,1.0938707E1,1.1400955E1,6.94553E1,9.381411E0,3.0956394E1],"split_indices":[0,0,0,0,0,0,2,0,0,0,0,0,0,2,0,0,0,0,0,0,0,0,0,0,0,0,0,3,3,2,0,0,0,0,0,0,0,0,0,0,0,0,0,0,0,0,0,0,0,0,0,0,0,0,0,0,3,1,2,1,1,0,0,0,0,0,0,0,0,0,0,0,0,0,0,0,0,0,0,0,0,0,0,0,0,0,0,0,0,0,0,0,0,0,0,0,0,0,0,0,0,0,0,0,0,0,0,0,0,0,0,0,0,0,0,0,0,0,0],"split_type":[0,0,0,0,0,0,0,0,0,0,0,0,0,0,0,0,0,0,0,0,0,0,0,0,0,0,0,0,0,0,0,0,0,0,0,0,0,0,0,0,0,0,0,0,0,0,0,0,0,0,0,0,0,0,0,0,0,0,0,0,0,0,0,0,0,0,0,0,0,0,0,0,0,0,0,0,0,0,0,0,0,0,0,0,0,0,0,0,0,0,0,0,0,0,0,0,0,0,0,0,0,0,0,0,0,0,0,0,0,0,0,0,0,0,0,0,0,0,0],"sum_hessian":[1.49384E5,1.22752E5,2.6632E4,7.3156E4,4.9596E4,2.6022E4,6.1E2,3.6115E4,3.7041E4,2.858E4,2.1016E4,1.8911E4,7.111E3,3.98E2,2.12E2,1.5506E4,2.0609E4,1.9318E4,1.7723E4,1.464E4,1.394E4,1.1687E4,9.329E3,1.1001E4,7.91E3,4.674E3,2.437E3,2.6E1,3.72E2,2.05E2,7E0,6.008E3,9.498E3,7.836E3,1.2773E4,8.216E3,1.1102E4,8.705E3,9.018E3,7.341E3,7.299E3,8.415E3,5.525E3,5.574E3,6.113E3,4.778E3,4.551E3,5.407E3,5.594E3,4.319E3,3.591E3,2.309E3,2.365E3,1.274E3,1.163E3,2E0,2.4E1,1.79E2,1.93E2,2.4E1,1.81E2,1.962E3,4.046E3,5.482E3,4.016E3,4.621E3,3.215E3,7.543E3,5.23E3,4.489E3,3.727E3,6.426E3,4.676E3,4.499E3,4.206E3,2.64E3,6.378E3,3.696E3,3.645E3,5.805E3,1.494E3,5.845E3,2.57E3,1.81E3,3.715E3,2.174E3,3.4E3,2.638E3,3.475E3,2.58E3,2.198E3,2.713E3,1.838E3,2.864E3,2.543E3,2.95E3,2.644E3,1.876E3,2.443E3,1.809E3,1.782E3,9.84E2,1.325E3,1.308E3,1.057E3,6.14E2,6.6E2,5.93E2,5.7E2,5E0,1.9E1,1.31E2,4.8E1,5.3E1,1.4E2,7E0,1.7E1,1.4E1,1.67E2],"tree_param":{"num_deleted":"0","num_feature":"5","num_nodes":"119","size_leaf_vector":"1"}},{"base_weights":[5.4355883E-3,-7.7673516E0,3.7952442E1,-1.4171385E1,2.6740623E0,3.3858288E1,2.0398157E2,-1.7955332E1,-9.932335E0,-1.3891647E0,9.213676E0,2.595004E1,5.5723064E1,1.4742169E2,3.089741E2,-2.0183605E1,-1.5764265E1,-1.1755924E1,-7.848646E0,-3.4501994E0,1.4277799E0,6.7293797E0,1.2347912E1,2.1038168E1,3.361195E1,4.8237415E1,6.843011E1,2.7267743E2,1.3795969E2,2.9255524E2,6.9313805E1,-2.2101807E1,-1.9082764E1,-1.7041765E1,-1.4942344E1,-1.3044721E1,-1.0890885E1,-9.117648E0,-6.9854493E0,-4.5962815E0,-1.9740314E0,3.1165582E-1,2.869729E0,5.063015E0,7.8355093E0,1.078891E1,1.3673075E1,1.8091236E1,2.4009573E1,3.02578E1,3.6999313E1,4.4758213E1,5.249356E1,6.179724E1,7.56367E1,5.3604244E1,2.3016653E2,1.6169292E2,1.1522804E2,4.8613934E2,2.6435657E2,-2.2787964E0,-2.1235635E0,-1.9514859E0,-1.8314384E0,-1.7554516E0,-1.669431E0,-1.5325053E0,-1.4258835E0,-1.3490399E0,-1.2629308E0,-1.1307988E0,-1.0232872E0,-9.410737E-1,-8.647319E-1,-7.7877843E-1,-6.447053E-1,-5.036361E-1,-3.727679E-1,-2.3841734E-1,-1.3100822E-1,-1.6356908E-2,1.1292712E-1,2.4679022E-1,3.511221E-1,4.3537116E-1,5.433622E-1,7.164759E-1,8.735817E-1,9.97112E-1,1.1373081E0,1.2785804E0,1.4446237E0,1.6878265E0,1.9736502E0,2.2719836E0,2.6187942E0,2.9128652E0,3.1917915E0,3.5149102E0,3.9103875E0,4.301843E0,4.646945E0,5.0819335E0,5.578135E0,5.9347806E0,6.398273E0,7.1168857E0,8.015204E0,1.3892959E1,2.460293E1,1.3725858E1,2.2421616E1,1.5670524E1,9.852594E0,1.0403372E1,6.289563E1,8.505813E0,2.787918E1],"categories":[],"categories_nodes":[],"categories_segments":[],"categories_sizes":[],"default_left":[0,0,0,0,0,0,0,0,0,0,0,0,0,0,0,0,0,0,0,0,0,0,0,0,0,0,0,0,0,0,0,0,0,0,0,0,0,0,0,0,0,0,0,0,0,0,0,0,0,0,0,0,0,0,0,0,0,0,0,0,0,0,0,0,0,0,0,0,0,0,0,0,0,0,0,0,0,0,0,0,0,0,0,0,0,0,0,0,0,0,0,0,0,0,0,0,0,0,0,0,0,0,0,0,0,0,0,0,0,0,0,0,0,0,0,0,0,0,0],"id":2,"left_children":[1,3,5,7,9,11,13,15,17,19,21,23,25,27,29,31,33,35,37,39,41,43,45,47,49,51,53,55,57,59,-1,61,63,65,67,69,71,73,75,77,79,81,83,85,87,89,91,93,95,97,99,101,103,105,107,-1,109,111,113,115,117,-1,-1,-1,-1,-1,-1,-1,-1,-1,-1,-1,-1,-1,-1,-1,-1,-1,-1,-1,-1,-1,-1,-1,-1,-1,-1,-1,-1,-1,-1,-1,-1,-1,-1,-1,-1,-1,-1,-1,-1,-1,-1,-1,-1,-1,-1,-1,-1,-1,-1,-1,-1,-1,-1,-1,-1,-1,-1],"loss_changes":[4.4061996E7,8.2908295E6,1.7256664E7,1.23257E6,1.252534E6,4.284524E6,3.582792E6,1.97927E5,1.376465E5,1.6880338E5,1.4057012E5,6.84426E5,6.22876E5,4.35265E5,1.140722E6,4.20815E4,2.1247E4,2.1407E4,1.8471562E4,2.8396422E4,1.9770516E4,1.8538094E4,1.6350875E4,9.6728E4,7.96625E4,5.9046E4,1.11863E5,1.7891E5,1.826E5,9.96E5,0E0,3.8745E3,3.891E3,1.134E3,3.04325E3,1.265875E3,3.060375E3,8.624375E2,4.3019062E3,3.5939062E3,1.9956562E3,2.6912898E3,1.3729727E3,1.0341484E3,3.5945312E3,1.6417812E3,2.7739375E3,1.0792625E4,1.491925E4,5.777E3,1.2383E4,4.8125E3,7.398E3,3.0275E3,1.77785E4,0E0,2.000875E3,2.442125E5,1.18955E5,1.298847E6,4.47342E5,0E0,0E0,0E0,0E0,0E0,0E0,0E0,0E0,0E0,0E0,0E0,0E0,0E0,0E0,0E0,0E0,0E0,0E0,0E0,0E0,0E0,0E0,0E0,0E0,0E0,0E0,0E0,0E0,0E0,0E0,0E0,0E0,0E0,0E0,0E0,0E0,0E0,0E0,0E0,0E0,0E0,0E0,0E0,0E0,0E0,0E0,0E0,0E0,0E0,0E0,0E0,0E0,0E0,0E0,0E0,0E0,0E0,0E0],"parents":[2147483647,0,0,1,1,2,2,3,3,4,4,5,5,6,6,7,7,8,8,9,9,10,10,11,11,12,12,13,13,14,14,15,15,16,16,17,17,18,18,19,19,20,20,21,21,22,22,23,23,24,24,25,25,26,26,27,27,28,28,29,29,31,31,32,32,33,33,34,34,35,35,36,36,37,37,38,38,39,39,40,40,41,41,42,42,43,43,44,44,45,45,46,46,47,47,48,48,49,49,50,50,51,51,52,52,53,53,54,54,56,56,57,57,58,58,59,59,60,60],"right_children":[2,4,6,8,10,12,14,16,18,20,22,24,26,28,30,32,34,36,38,40,42,44,46,48,50,52,54,56,58,60,-1,62,64,66,68,70,72,74,76,78,80,82,84,86,88,90,92,94,96,98,100,102,104,106,108,-1,110,112,114,116,118,-1,-1,-1,-1,-1,-1,-1,-1,-1,-1,-1,-1,-1,-1,-1,-1,-1,-1,-1,-1,-1,-1,-1,-1,-1,-1,-1,-1,-1,-1,-1,-1,-1,-1,-1,-1,-1,-1,-1,-1,-1,-1,-1,-1,-1,-1,-1,-1,-1,-1,-1,-1,-1,-1,-1,-1,-1,-1],"split_conditions":[3.2666668E1,1.5333333E1,9.0666664E1,8.666667E0,2.3333334E1,5.4E1,1.3E1,5.3333335E0,1.2E1,1.9333334E1,2.8E1,4.2666668E1,6.7333336E1,1E0,6.54E2,3.3333333E0,6.6666665E0,1E1,1.3333333E1,1.7333334E1,2.1333334E1,2.5333334E1,3E1,3.7333332E1,4.7333332E1,6E1,7.5333336E1,9E0,2E0,1.8E1,6.9313805E1,1.8266667E0,4.6666665E0,5.82E0,8E0,9.333333E0,1.0846666E1,1.2666667E1,1.4E1,1.6666666E1,1.8666666E1,2.0366667E1,2.2273333E1,2.4E1,2.6666666E1,2.8666666E1,3.1333334E1,3.5066666E1,4.0093334E1,4.5333332E1,5.0666668E1,5.6666668E1,6.4666664E1,7.0666664E1,8.2E1,5.3604244E1,1E1,8.8E1,4E0,7E1,7E1,-2.2787964E0,-2.1235635E0,-1.9514859E0,-1.8314384E0,-1.7554516E0,-1.669431E0,-1.5325053E0,-1.4258835E0,-1.3490399E0,-1.2629308E0,-1.1307988E0,-1.0232872E0,-9.410737E-1,-8.647319E-1,-7.7877843E-1,-6.447053E-1,-5.036361E-1,-3.727679E-1,-2.3841734E-1,-1.3100822E-1,-1.6356908E-2,1.1292712E-1,2.4679022E-1,3.511221E-1,4.3537116E-1,5.433622E-1,7.164759E-1,8.735817E-1,9.97112E-1,1.1373081E0,1.2785804E0,1.4446237E0,1.6878265E0,1.9736502E0,2.2719836E0,2.6187942E0,2.9128652E0,3.1917915E0,3.5149102E0,3.9103875E0,4.301843E0,4.646945E0,5.0819335E0,5.578135E0,5.9347806E0,6.398273E0,7.1168857E0,8.015204E0,1.3892959E1,2.460293E1,1.3725858E1,2.2421616E1,1.5670524E1,9.852594E0,1.0403372E1,6.289563E1,8.505813E0,2.787918E1],"split_indices":[0,0,0,0,0,0,2,0,0,0,0,0,0,2,0,0,0,0,0,0,0,0,0,0,0,0,0,3,3,2,0,0,0,0,0,0,0,0,0,0,0,0,0,0,0,0,0,0,0,0,0,0,0,0,0,0,3,1,2,1,1,0,0,0,0,0,0,0,0,0,0,0,0,0,0,0,0,0,0,0,0,0,0,0,0,0,0,0,0,0,0,0,0,0,0,0,0,0,0,0,0,0,0,0,0,0,0,0,0,0,0,0,0,0,0,0,0,0,0],"split_type":[0,0,0,0,0,0,0,0,0,0,0,0,0,0,0,0,0,0,0,0,0,0,0,0,0,0,0,0,0,0,0,0,0,0,0,0,0,0,0,0,0,0,0,0,0,0,0,0,0,0,0,0,0,0,0,0,0,0,0,0,0,0,0,0,0,0,0,0,0,0,0,0,0,0,0,0,0,0,0,0,0,0,0,0,0,0,0,0,0,0,0,0,0,0,0,0,0,0,0,0,0,0,0,0,0,0,0,0,0,0,0,0,0,0,0,0,0,0,0],"sum_hessian":[1.49384E5,1.23988E5,2.5396E4,7.6852E4,4.7136E4,2.4786E4,6.1E2,4.0604E4,3.6248E4,2.9073E4,1.8063E4,1.8204E4,6.582E3,3.98E2,2.12E2,2.0127E4,2.0477E4,1.9328E4,1.692E4,1.6789E4,1.2284E4,1.0078E4,7.985E3,1.1095E4,7.109E3,4.145E3,2.437E3,2.6E1,3.72E2,2.05E2,7E0,7.332E3,1.2795E4,8.009E3,1.2468E4,7.757E3,1.1571E4,6.846E3,1.0074E4,9.45E3,7.339E3,6.925E3,5.359E3,4.023E3,6.055E3,3.673E3,4.312E3,5.574E3,5.521E3,3.577E3,3.532E3,2.287E3,1.858E3,1.274E3,1.163E3,2E0,2.4E1,1.79E2,1.93E2,2.4E1,1.81E2,4.077E3,3.255E3,8.174E3,4.621E3,3.215E3,4.794E3,7.979E3,4.489E3,3.727E3,4.03E3,7.072E3,4.499E3,4.206E3,2.64E3,4.04E3,6.034E3,6.269E3,3.181E3,4.535E3,2.804E3,4.38E3,2.545E3,3.298E3,2.061E3,1.385E3,2.638E3,3.475E3,2.58E3,1.538E3,2.135E3,2.016E3,2.296E3,3.215E3,2.359E3,3.475E3,2.046E3,2.14E3,1.437E3,1.889E3,1.643E3,1.147E3,1.14E3,1.242E3,6.16E2,6.14E2,6.6E2,5.93E2,5.7E2,5E0,1.9E1,1.31E2,4.8E1,5.3E1,1.4E2,7E0,1.7E1,1.4E1,1.67E2],"tree_param":{"num_deleted":"0","num_feature":"5","num_nodes":"119","size_leaf_vector":"1"}},{"base_weights":[7.4774656E-3,-6.9907427E0,3.4173023E1,-1.27545395E1,2.406802E0,3.047525E1,1.8412804E2,-1.6160156E1,-8.939322E0,-1.2502671E0,8.29272E0,2.3356249E1,5.015791E1,1.3306491E2,2.7891705E2,-1.8165651E1,-1.418815E1,-1.0580579E1,-7.0639725E0,-3.1052542E0,1.2850589E0,6.0566964E0,1.11137295E1,1.8639334E1,2.982245E1,4.3418404E1,6.1598362E1,2.1981284E2,1.21416695E2,2.6383215E2,6.3248848E1,-1.9892225E1,-1.7174782E1,-1.5066823E1,-1.3214093E1,-1.1487447E1,-9.575902E0,-8.206146E0,-6.287046E0,-4.1367464E0,-1.776679E0,2.8050473E-1,2.5828679E0,4.5569572E0,7.052221E0,9.710599E0,1.2306399E1,1.6271202E1,2.127578E1,2.6849897E1,3.330148E1,4.0286304E1,4.724994E1,5.562719E1,6.808603E1,5.003063E1,1.9569254E1,1.4572444E2,9.5720634E1,4.4045737E2,2.3812083E2,-2.0509727E0,-1.9112724E0,-1.794089E0,-1.6803932E0,-1.5799611E0,-1.4752439E0,-1.3538446E0,-1.2833269E0,-1.2141721E0,-1.1106147E0,-9.918906E-1,-9.1920817E-1,-8.469886E-1,-7.782914E-1,-7.009199E-1,-5.8024555E-1,-4.8581243E-1,-3.68303E-1,-2.1458092E-1,-1.1791208E-1,-1.4721538E-2,1.01638906E-1,1.6995016E-1,2.8291306E-1,3.9186546E-1,4.8904663E-1,6.448488E-1,7.8625745E-1,8.9746565E-1,1.0236305E0,1.1507858E0,1.3002243E0,1.5190963E0,1.7751416E0,1.9821433E0,2.2643385E0,2.5386665E0,2.8305812E0,3.163605E0,3.5195863E0,3.8720334E0,4.1826572E0,4.5741496E0,5.0212255E0,5.3422675E0,5.7594137E0,6.406395E0,7.215088E0,1.236367E1,2.022521E1,1.153424E1,8.448022E0,9.493076E0,5.6955486E1,7.7119365E0,2.5107857E1],"categories":[],"categories_nodes":[],"categories_segments":[],"categories_sizes":[],"default_left":[0,0,0,0,0,0,0,0,0,0,0,0,0,0,0,0,0,0,0,0,0,0,0,0,0,0,0,0,0,0,0,0,0,0,0,0,0,0,0,0,0,0,0,0,0,0,0,0,0,0,0,0,0,0,0,0,0,0,0,0,0,0,0,0,0,0,0,0,0,0,0,0,0,0,0,0,0,0,0,0,0,0,0,0,0,0,0,0,0,0,0,0,0,0,0,0,0,0,0,0,0,0,0,0,0,0,0,0,0,0,0,0,0,0,0,0,0],"id":3,"left_children":[1,3,5,7,9,11,13,15,17,19,21,23,25,27,29,31,33,35,37,39,41,43,45,47,49,51,53,55,57,59,-1,61,63,65,67,69,71,73,75,77,79,81,83,85,87,89,91,93,95,97,99,101,103,105,107,-1,-1,109,111,113,115,-1,-1,-1,-1,-1,-1,-1,-1,-1,-1,-1,-1,-1,-1,-1,-1,-1,-1,-1,-1,-1,-1,-1,-1,-1,-1,-1,-1,-1,-1,-1,-1,-1,-1,-1,-1,-1,-1,-1,-1,-1,-1,-1,-1,-1,-1,-1,-1,-1,-1,-1,-1,-1,-1,-1,-1],"loss_changes":[3.5717896E7,6.7159615E6,1.4077014E7,9.9842E5,1.014644E6,3.472004E6,2.92026E6,1.60328E5,1.1149725E5,1.3673892E5,1.13877625E5,5.54706E5,5.04894E5,3.764845E5,9.69185E5,3.40935E4,1.732775E4,1.7501E4,1.4963875E4,2.3001906E4,1.6015467E4,1.5016094E4,1.3244875E4,6.539125E4,7.84985E4,4.78515E4,9.0659E4,2.1331075E5,2.07164E5,8.30619E5,0E0,3.1375E3,3.33425E3,2.2455E3,1.02675E3,2.39825E3,1.1168125E3,6.9834375E2,3.4850938E3,3.0754219E3,1.6165039E3,2.1801257E3,1.161207E3,8.3746875E2,2.9120938E3,1.3295625E3,2.2469375E3,8.60625E3,9.45425E3,8.11175E3,1.0033E4,3.8995E3,6.01E3,2.452E3,1.4408E4,0E0,0E0,1.997365E5,2.8853375E4,1.061098E6,3.60327E5,0E0,0E0,0E0,0E0,0E0,0E0,0E0,0E0,0E0,0E0,0E0,0E0,0E0,0E0,0E0,0E0,0E0,0E0,0E0,0E0,0E0,0E0,0E0,0E0,0E0,0E0,0E0,0E0,0E0,0E0,0E0,0E0,0E0,0E0,0E0,0E0,0E0,0E0,0E0,0E0,0E0,0E0,0E0,0E0,0E0,0E0,0E0,0E0,0E0,0E0,0E0,0E0,0E0,0E0,0E0,0E0],"parents":[2147483647,0,0,1,1,2,2,3,3,4,4,5,5,6,6,7,7,8,8,9,9,10,10,11,11,12,12,13,13,14,14,15,15,16,16,17,17,18,18,19,19,20,20,21,21,22,22,23,23,24,24,25,25,26,26,27,27,28,28,29,29,31,31,32,32,33,33,34,34,35,35,36,36,37,37,38,38,39,39,40,40,41,41,42,42,43,43,44,44,45,45,46,46,47,47,48,48,49,49,50,50,51,51,52,52,53,53,54,54,57,57,58,58,59,59,60,60],"right_children":[2,4,6,8,10,12,14,16,18,20,22,24,26,28,30,32,34,36,38,40,42,44,46,48,50,52,54,56,58,60,-1,62,64,66,68,70,72,74,76,78,80,82,84,86,88,90,92,94,96,98,100,102,104,106,108,-1,-1,110,112,114,116,-1,-1,-1,-1,-1,-1,-1,-1,-1,-1,-1,-1,-1,-1,-1,-1,-1,-1,-1,-1,-1,-1,-1,-1,-1,-1,-1,-1,-1,-1,-1,-1,-1,-1,-1,-1,-1,-1,-1,-1,-1,-1,-1,-1,-1,-1,-1,-1,-1,-1,-1,-1,-1,-1,-1,-1],"split_conditions":[3.2666668E1,1.5333333E1,9.0666664E1,8.666667E0,2.3333334E1,5.4E1,1.3E1,5.3333335E0,1.2E1,1.9333334E1,2.8E1,4.2E1,6.7333336E1,2E0,6.54E2,3.3333333E0,7.306667E0,1.02E1,1.3333333E1,1.7333334E1,2.1333334E1,2.5333334E1,3E1,3.6866665E1,4.7333332E1,6E1,7.5333336E1,9E0,2E0,1.8E1,6.3248848E1,1.8266667E0,4E0,5.82E0,8E0,9.333333E0,1.1333333E1,1.2666667E1,1.4E1,1.5906667E1,1.8666666E1,2.0366667E1,2.2E1,2.4E1,2.6666666E1,2.8666666E1,3.1333334E1,3.5066666E1,3.9333332E1,4.4666668E1,5.0666668E1,5.6666668E1,6.4666664E1,7.0666664E1,8.2E1,5.003063E1,1.9569254E1,8.8E1,6E0,7E1,7E1,-2.0509727E0,-1.9112724E0,-1.794089E0,-1.6803932E0,-1.5799611E0,-1.4752439E0,-1.3538446E0,-1.2833269E0,-1.2141721E0,-1.1106147E0,-9.918906E-1,-9.1920817E-1,-8.469886E-1,-7.782914E-1,-7.009199E-1,-5.8024555E-1,-4.8581243E-1,-3.68303E-1,-2.1458092E-1,-1.1791208E-1,-1.4721538E-2,1.01638906E-1,1.6995016E-1,2.8291306E-1,3.9186546E-1,4.8904663E-1,6.448488E-1,7.8625745E-1,8.9746565E-1,1.0236305E0,1.1507858E0,1.3002243E0,1.5190963E0,1.7751416E0,1.9821433E0,2.2643385E0,2.5386665E0,2.8305812E0,3.163605E0,3.5195863E0,3.8720334E0,4.1826572E0,4.5741496E0,5.0212255E0,5.3422675E0,5.7594137E0,6.406395E0,7.215088E0,1.236367E1,2.022521E1,1.153424E1,8.448022E0,9.493076E0,5.6955486E1,7.7119365E0,2.5107857E1],"split_indices":[0,0,0,0,0,0,2,0,0,0,0,0,0,2,0,0,0,0,0,0,0,0,0,0,0,0,0,3,3,2,0,0,0,0,0,0,0,0,0,0,0,0,0,0,0,0,0,0,0,0,0,0,0,0,0,0,0,1,2,1,1,0,0,0,0,0,0,0,0,0,0,0,0,0,0,0,0,0,0,0,0,0,0,0,0,0,0,0,0,0,0,0,0,0,0,0,0,0,0,0,0,0,0,0,0,0,0,0,0,0,0,0,0,0,0,0,0],"split_type":[0,0,0,0,0,0,0,0,0,0,0,0,0,0,0,0,0,0,0,0,0,0,0,0,0,0,0,0,0,0,0,0,0,0,0,0,0,0,0,0,0,0,0,0,0,0,0,0,0,0,0,0,0,0,0,0,0,0,0,0,0,0,0,0,0,0,0,0,0,0,0,0,0,0,0,0,0,0,0,0,0,0,0,0,0,0,0,0,0,0,0,0,0,0,0,0,0,0,0,0,0,0,0,0,0,0,0,0,0,0,0,0,0,0,0,0,0],"sum_hessian":[1.49384E5,1.23988E5,2.5396E4,7.6852E4,4.7136E4,2.4786E4,6.1E2,4.0604E4,3.6248E4,2.9073E4,1.8063E4,1.8204E4,6.582E3,3.98E2,2.12E2,2.0127E4,2.0477E4,1.9328E4,1.692E4,1.6789E4,1.2284E4,1.0078E4,7.985E3,1.0528E4,7.676E3,4.145E3,2.437E3,4.5E1,3.53E2,2.05E2,7E0,7.332E3,1.2795E4,1.0758E4,9.719E3,1.0153E4,9.175E3,6.846E3,1.0074E4,9.45E3,7.339E3,6.925E3,5.359E3,4.023E3,6.055E3,3.673E3,4.312E3,5.55E3,4.978E3,4.144E3,3.532E3,2.287E3,1.858E3,1.274E3,1.163E3,2E0,4.3E1,1.79E2,1.74E2,2.4E1,1.81E2,4.077E3,3.255E3,4.158E3,8.637E3,3.215E3,7.543E3,5.23E3,4.489E3,3.727E3,6.426E3,4.832E3,4.343E3,4.206E3,2.64E3,4.04E3,6.034E3,3.645E3,5.805E3,4.535E3,2.804E3,4.38E3,2.545E3,1.17E3,4.189E3,1.385E3,2.638E3,3.475E3,2.58E3,1.538E3,2.135E3,2.016E3,2.296E3,3.215E3,2.335E3,2.42E3,2.558E3,2.076E3,2.068E3,1.889E3,1.643E3,1.147E3,1.14E3,1.242E3,6.16E2,6.14E2,6.6E2,5.93E2,5.7E2,1.31E2,4.8E1,6E1,1.14E2,7E0,1.7E1,1.4E1,1.67E2],"tree_param":{"num_deleted":"0","num_feature":"5","num_nodes":"117","size_leaf_vector":"1"}},{"base_weights":[8.9549385E-3,-6.2917833E0,3.076937E1,-1.1479349E1,2.1662498E0,2.7430225E1,1.6618117E2,-1.4544464E1,-8.045587E0,-1.1252627E0,7.4638176E0,2.10217E1,4.5148552E1,1.2006461E2,2.5178835E2,-1.6349455E1,-1.2769613E1,-9.52274E0,-6.3577466E0,-2.794799E0,1.1565967E0,5.2213254E0,9.745301E0,1.7037388E1,2.7236734E1,3.908082E1,5.5448666E1,2.2771994E2,1.11949974E2,3.2115295E2,1.887335E2,-1.7903543E1,-1.5457576E1,-1.3820925E1,-1.2093233E1,-1.0580364E1,-8.812874E0,-7.3857694E0,-5.6584682E0,-3.723162E0,-1.5990566E0,2.5246647E-1,2.3246655E0,4.1014805E0,6.1057887E0,8.506245E0,1.1076327E1,1.5045679E1,1.9954538E1,2.4975882E1,3.058374E1,3.6261192E1,4.2530106E1,5.0073177E1,6.128913E1,4.669525E1,1.8990323E2,1.3133304E2,9.338863E1,1.2284693E2,3.723122E2,7.398897E1,2.0537169E2,-1.8459257E0,-1.720204E0,-1.5825595E0,-1.4803313E0,-1.422014E0,-1.355029E0,-1.2397245E0,-1.1550226E0,-1.0927875E0,-1.0256351E0,-9.136022E-1,-8.273085E-1,-7.623099E-1,-7.0049167E-1,-6.0757846E-1,-4.9368787E-1,-4.0962487E-1,-2.9868397E-1,-1.931276E-1,-1.0612505E-1,-4.20023E-2,6.493255E-2,1.9784223E-1,2.8774938E-1,3.880063E-1,4.9424633E-1,5.412294E-1,6.486945E-1,7.900316E-1,9.2131513E-1,1.0357641E0,1.1702585E0,1.3672339E0,1.6346779E0,1.8881037E0,2.123121E0,2.3593633E0,2.6367261E0,2.9258525E0,3.195638E0,3.4851673E0,3.7647579E0,4.026992E0,4.420321E0,4.80891E0,5.1843433E0,5.7668343E0,6.4948425E0,1.110444E1,2.0406572E1,1.1136669E1,1.8243965E1,1.2717712E1,7.9786034E0,6.4764733E0,1.7504143E1,6.6925287E0,4.0577938E1,9.070717E0,4.5932364E0,1.6233183E1,2.647972E1],"categories":[],"categories_nodes":[],"categories_segments":[],"categories_sizes":[],"default_left":[0,0,0,0,0,0,0,0,0,0,0,0,0,0,0,0,0,0,0,0,0,0,0,0,0,0,0,0,0,0,0,0,0,0,0,0,0,0,0,0,0,0,0,0,0,0,0,0,0,0,0,0,0,0,0,0,0,0,0,0,0,0,0,0,0,0,0,0,0,0,0,0,0,0,0,0,0,0,0,0,0,0,0,0,0,0,0,0,0,0,0,0,0,0,0,0,0,0,0,0,0,0,0,0,0,0,0,0,0,0,0,0,0,0,0,0,0,0,0,0,0,0,0,0,0],"id":4,"left_children":[1,3,5,7,9,11,13,15,17,19,21,23,25,27,29,31,33,35,37,39,41,43,45,47,49,51,53,55,57,59,61,63,65,67,69,71,73,75,77,79,81,83,85,87,89,91,93,95,97,99,101,103,105,107,109,-1,111,113,115,117,119,121,123,-1,-1,-1,-1,-1,-1,-1,-1,-1,-1,-1,-1,-1,-1,-1,-1,-1,-1,-1,-1,-1,-1,-1,-1,-1,-1,-1,-1,-1,-1,-1,-1,-1,-1,-1,-1,-1,-1,-1,-1,-1,-1,-1,-1,-1,-1,-1,-1,-1,-1,-1,-1,-1,-1,-1,-1,-1,-1,-1,-1,-1,-1],"loss_changes":[2.8952998E7,5.4402405E6,1.1478938E7,8.08752E5,8.2193675E5,2.813576E6,2.38194E6,1.29873E5,9.03155E4,1.1076492E5,9.236831E4,4.503395E5,4.0926E5,3.230665E5,8.71003E5,2.76215E4,1.43945E4,1.441825E4,1.212225E4,1.8632344E4,1.2973434E4,9.0000625E3,1.46713125E4,6.416875E4,5.30385E4,3.87805E4,7.3473E4,1.5559275E5,1.219315E5,9.6878E5,2.02447E5,2.54125E3,2.84675E3,6.7275E2,1.915E3,7.614375E2,1.943E3,5.6553125E2,3.0039062E3,2.5840625E3,1.3093867E3,1.848708E3,1.0202793E3,7.301172E2,1.3100625E3,1.9150938E3,1.8199375E3,1.1566125E4,5.765125E3,7.5495E3,4.27125E3,3.159E3,5.24975E3,1.985E3,1.1677E4,0E0,5.2605625E3,1.6335625E5,7.901775E4,5.535803E4,7.80258E5,3.3384922E3,2.102235E5,0E0,0E0,0E0,0E0,0E0,0E0,0E0,0E0,0E0,0E0,0E0,0E0,0E0,0E0,0E0,0E0,0E0,0E0,0E0,0E0,0E0,0E0,0E0,0E0,0E0,0E0,0E0,0E0,0E0,0E0,0E0,0E0,0E0,0E0,0E0,0E0,0E0,0E0,0E0,0E0,0E0,0E0,0E0,0E0,0E0,0E0,0E0,0E0,0E0,0E0,0E0,0E0,0E0,0E0,0E0,0E0,0E0,0E0,0E0,0E0,0E0,0E0],"parents":[2147483647,0,0,1,1,2,2,3,3,4,4,5,5,6,6,7,7,8,8,9,9,10,10,11,11,12,12,13,13,14,14,15,15,16,16,17,17,18,18,19,19,20,20,21,21,22,22,23,23,24,24,25,25,26,26,27,27,28,28,29,29,30,30,31,31,32,32,33,33,34,34,35,35,36,36,37,37,38,38,39,39,40,40,41,41,42,42,43,43,44,44,45,45,46,46,47,47,48,48,49,49,50,50,51,51,52,52,53,53,54,54,56,56,57,57,58,58,59,59,60,60,61,61,62,62],"right_children":[2,4,6,8,10,12,14,16,18,20,22,24,26,28,30,32,34,36,38,40,42,44,46,48,50,52,54,56,58,60,62,64,66,68,70,72,74,76,78,80,82,84,86,88,90,92,94,96,98,100,102,104,106,108,110,-1,112,114,116,118,120,122,124,-1,-1,-1,-1,-1,-1,-1,-1,-1,-1,-1,-1,-1,-1,-1,-1,-1,-1,-1,-1,-1,-1,-1,-1,-1,-1,-1,-1,-1,-1,-1,-1,-1,-1,-1,-1,-1,-1,-1,-1,-1,-1,-1,-1,-1,-1,-1,-1,-1,-1,-1,-1,-1,-1,-1,-1,-1,-1,-1,-1,-1,-1],"split_conditions":[3.2666668E1,1.5333333E1,9.0666664E1,8.666667E0,2.3333334E1,5.4E1,1.3E1,5.3333335E0,1.2E1,1.9333334E1,2.7333334E1,4.2666668E1,6.7333336E1,1E0,2.1E1,3.3333333E0,6.6666665E0,1E1,1.3333333E1,1.7333334E1,2.1333334E1,2.5333334E1,3E1,3.8E1,4.8666668E1,6E1,7.5333336E1,9E0,2E0,7E0,1E1,1.8266667E0,4.6666665E0,5.82E0,8E0,9.333333E0,1.1333333E1,1.2666667E1,1.4666667E1,1.6666666E1,1.8666666E1,2E1,2.2273333E1,2.4666666E1,2.6E1,2.8666666E1,3.1333334E1,3.5066666E1,4.0093334E1,4.5333332E1,5.1333332E1,5.6666668E1,6.2666668E1,7.0666664E1,8.2E1,4.669525E1,1E1,8.8E1,4E0,7.2E1,7E1,8.2E1,8.5E1,-1.8459257E0,-1.720204E0,-1.5825595E0,-1.4803313E0,-1.422014E0,-1.355029E0,-1.2397245E0,-1.1550226E0,-1.0927875E0,-1.0256351E0,-9.136022E-1,-8.273085E-1,-7.623099E-1,-7.0049167E-1,-6.0757846E-1,-4.9368787E-1,-4.0962487E-1,-2.9868397E-1,-1.931276E-1,-1.0612505E-1,-4.20023E-2,6.493255E-2,1.9784223E-1,2.8774938E-1,3.880063E-1,4.9424633E-1,5.412294E-1,6.486945E-1,7.900316E-1,9.2131513E-1,1.0357641E0,1.1702585E0,1.3672339E0,1.6346779E0,1.8881037E0,2.123121E0,2.3593633E0,2.6367261E0,2.9258525E0,3.195638E0,3.4851673E0,3.7647579E0,4.026992E0,4.420321E0,4.80891E0,5.1843433E0,5.7668343E0,6.4948425E0,1.110444E1,2.0406572E1,1.1136669E1,1.8243965E1,1.2717712E1,7.9786034E0,6.4764733E0,1.7504143E1,6.6925287E0,4.0577938E1,9.070717E0,4.5932364E0,1.6233183E1,2.647972E1],"split_indices":[0,0,0,0,0,0,2,0,0,0,0,0,0,2,2,0,0,0,0,0,0,0,0,0,0,0,0,3,3,3,3,0,0,0,0,0,0,0,0,0,0,0,0,0,0,0,0,0,0,0,0,0,0,0,0,0,3,1,2,1,1,1,1,0,0,0,0,0,0,0,0,0,0,0,0,0,0,0,0,0,0,0,0,0,0,0,0,0,0,0,0,0,0,0,0,0,0,0,0,0,0,0,0,0,0,0,0,0,0,0,0,0,0,0,0,0,0,0,0,0,0,0,0,0,0],"split_type":[0,0,0,0,0,0,0,0,0,0,0,0,0,0,0,0,0,0,0,0,0,0,0,0,0,0,0,0,0,0,0,0,0,0,0,0,0,0,0,0,0,0,0,0,0,0,0,0,0,0,0,0,0,0,0,0,0,0,0,0,0,0,0,0,0,0,0,0,0,0,0,0,0,0,0,0,0,0,0,0,0,0,0,0,0,0,0,0,0,0,0,0,0,0,0,0,0,0,0,0,0,0,0,0,0,0,0,0,0,0,0,0,0,0,0,0,0,0,0,0,0,0,0,0,0],"sum_hessian":[1.49384E5,1.23988E5,2.5396E4,7.6852E4,4.7136E4,2.4786E4,6.1E2,4.0604E4,3.6248E4,2.9073E4,1.8063E4,1.8204E4,6.582E3,3.98E2,2.12E2,2.0127E4,2.0477E4,1.9328E4,1.692E4,1.6789E4,1.2284E4,9.111E3,8.952E3,1.1095E4,7.109E3,4.145E3,2.437E3,2.6E1,3.72E2,9.9E1,1.13E2,7.332E3,1.2795E4,8.009E3,1.2468E4,7.757E3,1.1571E4,6.846E3,1.0074E4,9.45E3,7.339E3,6.925E3,5.359E3,4.023E3,5.088E3,4.64E3,4.312E3,6.597E3,4.498E3,4.248E3,2.861E3,2.287E3,1.858E3,1.274E3,1.163E3,2E0,2.4E1,1.79E2,1.93E2,2.1E1,7.8E1,1.5E1,9.8E1,4.077E3,3.255E3,8.174E3,4.621E3,3.215E3,4.794E3,7.979E3,4.489E3,3.727E3,4.03E3,7.228E3,4.343E3,4.206E3,2.64E3,6.378E3,3.696E3,6.269E3,3.181E3,4.535E3,2.804E3,2.57E3,4.355E3,3.298E3,2.061E3,3.189E3,8.34E2,1.81E3,3.278E3,2.505E3,2.135E3,2.016E3,2.296E3,3.215E3,3.382E3,2.452E3,2.046E3,2.14E3,2.108E3,1.467E3,1.394E3,1.147E3,1.14E3,8.01E2,1.057E3,6.14E2,6.6E2,5.93E2,5.7E2,5E0,1.9E1,1.31E2,4.8E1,5.3E1,1.4E2,1.1E1,1E1,8E0,7E1,8E0,7E0,5.9E1,3.9E1],"tree_param":{"num_deleted":"0","num_feature":"5","num_nodes":"125","size_leaf_vector":"1"}},{"base_weights":[1.0062728E-2,-5.8283477E0,2.6919626E1,-1.0629078E1,1.2529845E0,2.4029184E1,1.4998189E2,-1.34249735E1,-7.902789E0,-1.9427818E0,5.5988445E0,1.8095188E1,3.9805298E1,1.0837966E2,2.272087E2,-1.512865E1,-1.2142473E1,-9.631729E0,-6.7477565E0,-3.5093358E0,-2.9742944E-1,3.6468234E0,8.043607E0,1.40482645E1,2.295231E1,3.452568E1,4.991293E1,2.0784448E2,1.0088923E2,2.1389482E2,5.4164E1,-1.6336752E1,-1.4362821E1,-1.2774189E1,-1.1166238E1,-1.0142622E1,-8.995846E0,-7.4541154E0,-5.7138243E0,-4.205369E0,-2.8088171E0,-9.80507E-1,7.429394E-1,2.8181212E0,5.0647693E0,6.880393E0,9.26306E0,1.2209313E1,1.6070047E1,2.0679651E1,2.6111319E1,3.1361479E1,3.7600395E1,4.50737E1,5.517075E1,4.3582237E1,1.7217336E2,1.1836295E2,8.415645E1,3.6966315E2,1.9132283E2,-1.7053581E0,-1.5985016E0,-1.4694529E0,-1.3906481E0,-1.3109672E0,-1.220846E0,-1.1564212E0,-1.0945374E0,-1.0395463E0,-9.835381E-1,-9.2309713E-1,-8.626003E-1,-7.7309805E-1,-6.86097E-1,-5.9405077E-1,-5.063897E-1,-4.4433236E-1,-3.9629325E-1,-3.3015975E-1,-2.531581E-1,-1.5124191E-1,-6.792871E-2,2.2176793E-2,1.0100986E-1,2.3042655E-1,3.492177E-1,4.739809E-1,5.577647E-1,6.104038E-1,7.274E-1,8.756518E-1,1.000558E0,1.0897417E0,1.2866791E0,1.5102185E0,1.7008479E0,1.9362843E0,2.2050498E0,2.4736793E0,2.7492015E0,2.9816806E0,3.2485263E0,3.5804296E0,3.9787068E0,4.3288007E0,4.6666937E0,5.1911216E0,5.846496E0,2.1804777E1,1.4221954E1,1.0031439E1,1.6456802E1,1.237122E1,7.4360766E0,8.09574E0,4.7744E1,2.2018919E1,1.3045366E1],"categories":[],"categories_nodes":[],"categories_segments":[],"categories_sizes":[],"default_left":[0,0,0,0,0,0,0,0,0,0,0,0,0,0,0,0,0,0,0,0,0,0,0,0,0,0,0,0,0,0,0,0,0,0,0,0,0,0,0,0,0,0,0,0,0,0,0,0,0,0,0,0,0,0,0,0,0,0,0,0,0,0,0,0,0,0,0,0,0,0,0,0,0,0,0,0,0,0,0,0,0,0,0,0,0,0,0,0,0,0,0,0,0,0,0,0,0,0,0,0,0,0,0,0,0,0,0,0,0,0,0,0,0,0,0,0,0,0,0],"id":5,"left_children":[1,3,5,7,9,11,13,15,17,19,21,23,25,27,29,31,33,35,37,39,41,43,45,47,49,51,53,55,57,59,-1,61,63,65,67,69,71,73,75,77,79,81,83,85,87,89,91,93,95,97,99,101,103,105,107,-1,109,111,113,115,117,-1,-1,-1,-1,-1,-1,-1,-1,-1,-1,-1,-1,-1,-1,-1,-1,-1,-1,-1,-1,-1,-1,-1,-1,-1,-1,-1,-1,-1,-1,-1,-1,-1,-1,-1,-1,-1,-1,-1,-1,-1,-1,-1,-1,-1,-1,-1,-1,-1,-1,-1,-1,-1,-1,-1,-1,-1,-1],"loss_changes":[2.3469896E7,4.173071E6,9.469868E6,5.57527E5,6.8883156E5,2.435434E6,1.9384E6,7.87285E4,7.390725E4,7.3667445E4,1.0026856E5,3.71419E5,3.77804E5,2.762995E5,7.75828E5,1.41125E4,1.256775E4,4.7275E3,1.61779375E4,7.1268906E3,9.9079375E3,1.3719766E4,1.31706875E4,3.8169625E4,6.11595E4,4.4304E4,5.95455E4,1.4453312E5,9.909825E4,6.53572E5,0E0,1.2425E3,1.2335E3,2.2135E3,5.85875E2,5.36125E2,4.9575E2,2.1134375E3,1.2986562E3,4.059453E2,9.889453E2,1.3474048E3,7.691926E2,2.5478008E3,6.918906E2,1.4159531E3,1.6245E3,4.524375E3,4.2045E3,8.60425E3,6.13675E3,3.04125E3,7.86775E3,1.607E3,9.4635E3,0E0,3.342125E3,1.3359975E5,6.5971E4,7.392425E5,2.910625E5,0E0,0E0,0E0,0E0,0E0,0E0,0E0,0E0,0E0,0E0,0E0,0E0,0E0,0E0,0E0,0E0,0E0,0E0,0E0,0E0,0E0,0E0,0E0,0E0,0E0,0E0,0E0,0E0,0E0,0E0,0E0,0E0,0E0,0E0,0E0,0E0,0E0,0E0,0E0,0E0,0E0,0E0,0E0,0E0,0E0,0E0,0E0,0E0,0E0,0E0,0E0,0E0,0E0,0E0,0E0,0E0,0E0,0E0],"parents":[2147483647,0,0,1,1,2,2,3,3,4,4,5,5,6,6,7,7,8,8,9,9,10,10,11,11,12,12,13,13,14,14,15,15,16,16,17,17,18,18,19,19,20,20,21,21,22,22,23,23,24,24,25,25,26,26,27,27,28,28,29,29,31,31,32,32,33,33,34,34,35,35,36,36,37,37,38,38,39,39,40,40,41,41,42,42,43,43,44,44,45,45,46,46,47,47,48,48,49,49,50,50,51,51,52,52,53,53,54,54,56,56,57,57,58,58,59,59,60,60],"right_children":[2,4,6,8,10,12,14,16,18,20,22,24,26,28,30,32,34,36,38,40,42,44,46,48,50,52,54,56,58,60,-1,62,64,66,68,70,72,74,76,78,80,82,84,86,88,90,92,94,96,98,100,102,104,106,108,-1,110,112,114,116,118,-1,-1,-1,-1,-1,-1,-1,-1,-1,-1,-1,-1,-1,-1,-1,-1,-1,-1,-1,-1,-1,-1,-1,-1,-1,-1,-1,-1,-1,-1,-1,-1,-1,-1,-1,-1,-1,-1,-1,-1,-1,-1,-1,-1,-1,-1,-1,-1,-1,-1,-1,-1,-1,-1,-1,-1,-1,-1],"split_conditions":[3.2E1,1.4666667E1,9.0666664E1,8E0,2.2E1,5.2666668E1,1.3E1,4.6666665E0,1.0666667E1,1.8E1,2.6666666E1,4.0666668E1,6.7333336E1,1E0,6.54E2,2.6666667E0,6.346667E0,9.333333E0,1.2666667E1,1.5906667E1,2E1,2.4666666E1,2.9333334E1,3.6E1,4.6666668E1,5.8666668E1,7.5333336E1,9E0,2E0,1.8E1,5.4164E1,1.3333334E0,4E0,5.82E0,7.306667E0,8.666667E0,1E1,1.2E1,1.4E1,1.5333333E1,1.6666666E1,1.8666666E1,2.0666666E1,2.3333334E1,2.6E1,2.7333334E1,3.0666666E1,3.3333332E1,3.8E1,4.3333332E1,4.9333332E1,5.5333332E1,6.2666668E1,7.0666664E1,8.2E1,4.3582237E1,7.9E1,8.8E1,3E0,7E1,2.2E1,-1.7053581E0,-1.5985016E0,-1.4694529E0,-1.3906481E0,-1.3109672E0,-1.220846E0,-1.1564212E0,-1.0945374E0,-1.0395463E0,-9.835381E-1,-9.2309713E-1,-8.626003E-1,-7.7309805E-1,-6.86097E-1,-5.9405077E-1,-5.063897E-1,-4.4433236E-1,-3.9629325E-1,-3.3015975E-1,-2.531581E-1,-1.5124191E-1,-6.792871E-2,2.2176793E-2,1.0100986E-1,2.3042655E-1,3.492177E-1,4.739809E-1,5.577647E-1,6.104038E-1,7.274E-1,8.756518E-1,1.000558E0,1.0897417E0,1.2866791E0,1.5102185E0,1.7008479E0,1.9362843E0,2.2050498E0,2.4736793E0,2.7492015E0,2.9816806E0,3.2485263E0,3.5804296E0,3.9787068E0,4.3288007E0,4.6666937E0,5.1911216E0,5.846496E0,2.1804777E1,1.4221954E1,1.0031439E1,1.6456802E1,1.237122E1,7.4360766E0,8.09574E0,4.7744E1,2.2018919E1,1.3045366E1],"split_indices":[0,0,0,0,0,0,2,0,0,0,0,0,0,2,0,0,0,0,0,0,0,0,0,0,0,0,0,3,3,2,0,0,0,0,0,0,0,0,0,0,0,0,0,0,0,0,0,0,0,0,0,0,0,0,0,0,1,1,2,1,2,0,0,0,0,0,0,0,0,0,0,0,0,0,0,0,0,0,0,0,0,0,0,0,0,0,0,0,0,0,0,0,0,0,0,0,0,0,0,0,0,0,0,0,0,0,0,0,0,0,0,0,0,0,0,0,0,0,0],"split_type":[0,0,0,0,0,0,0,0,0,0,0,0,0,0,0,0,0,0,0,0,0,0,0,0,0,0,0,0,0,0,0,0,0,0,0,0,0,0,0,0,0,0,0,0,0,0,0,0,0,0,0,0,0,0,0,0,0,0,0,0,0,0,0,0,0,0,0,0,0,0,0,0,0,0,0,0,0,0,0,0,0,0,0,0,0,0,0,0,0,0,0,0,0,0,0,0,0,0,0,0,0,0,0,0,0,0,0,0,0,0,0,0,0,0,0,0,0,0,0],"sum_hessian":[1.49384E5,1.22752E5,2.6632E4,7.3156E4,4.9596E4,2.6022E4,6.1E2,3.6115E4,3.7041E4,2.858E4,2.1016E4,1.8911E4,7.111E3,3.98E2,2.12E2,1.5506E4,2.0609E4,1.4832E4,2.2209E4,1.464E4,1.394E4,1.1687E4,9.329E3,1.0318E4,8.593E3,4.674E3,2.437E3,2.6E1,3.72E2,2.05E2,7E0,6.008E3,9.498E3,1.2505E4,8.104E3,8.216E3,6.616E3,1.3191E4,9.018E3,7.341E3,7.299E3,8.415E3,5.525E3,7.378E3,4.309E3,4.778E3,4.551E3,5.407E3,4.911E3,5.002E3,3.591E3,2.309E3,2.365E3,1.274E3,1.163E3,2E0,2.4E1,1.79E2,1.93E2,2.4E1,1.81E2,1.962E3,4.046E3,5.482E3,4.016E3,7.836E3,4.669E3,2.874E3,5.23E3,4.489E3,3.727E3,4.03E3,2.586E3,8.985E3,4.206E3,6.68E3,2.338E3,3.696E3,3.645E3,2.624E3,4.675E3,3.041E3,5.374E3,1.873E3,3.652E3,4.189E3,3.189E3,2.644E3,1.665E3,1.613E3,3.165E3,2.713E3,1.838E3,1.811E3,3.596E3,2.426E3,2.485E3,2.559E3,2.443E3,1.809E3,1.782E3,9.84E2,1.325E3,1.308E3,1.057E3,6.14E2,6.6E2,5.93E2,5.7E2,7E0,1.7E1,1.31E2,4.8E1,3.6E1,1.57E2,7E0,1.7E1,1.21E2,6E1],"tree_param":{"num_deleted":"0","num_feature":"5","num_nodes":"119","size_leaf_vector":"1"}},{"base_weights":[1.1103037E-2,-5.096659E0,2.4947369E1,-9.2987175E0,1.7545592E0,2.2223032E1,1.354272E2,-1.1781572E1,-6.517244E0,-9.115076E-1,6.045495E0,1.70289E1,3.6583805E1,9.785725E1,2.051689E2,-1.3248632E1,-1.0339012E1,-7.713783E0,-5.150043E0,-2.2685223E0,9.432084E-1,4.4091816E0,8.109903E0,1.3581357E1,2.1754984E1,3.1667198E1,4.492985E1,1.668468E2,8.8616066E1,1.9294662E2,4.9424652E1,-1.4510102E1,-1.2524687E1,-1.0984512E1,-9.623448E0,-8.38427E0,-6.970993E0,-5.9969E0,-4.574005E0,-3.0212073E0,-1.299054E0,2.1023424E-1,1.8901554E0,3.316563E0,5.13446E0,7.087233E0,8.9791765E0,1.1843609E1,1.5516014E1,1.957311E1,2.4308651E1,2.9370653E1,3.447668E1,4.0573383E1,4.966316E1,4.067675E1,1.466966E2,1.0667381E2,6.9536E1,3.3493045E2,1.7238321E2,-1.4964263E0,-1.393683E0,-1.3095955E0,-1.2248185E0,-1.1193255E0,-1.0408193E0,-9.8510456E-1,-9.356147E-1,-8.852107E-1,-8.1115943E-1,-7.237351E-1,-6.673047E-1,-6.175037E-1,-5.7108647E-1,-4.9064723E-1,-3.9991117E-1,-3.562356E-1,-2.6750538E-1,-1.9434385E-1,-1.13404326E-1,-1.0399895E-2,7.508648E-2,1.5961818E-1,2.3595679E-1,2.7903816E-1,3.591656E-1,4.6973005E-1,5.721222E-1,6.561327E-1,7.462834E-1,8.3989954E-1,9.484727E-1,1.1054463E0,1.2924966E0,1.4444675E0,1.6523516E0,1.8495522E0,2.0645406E0,2.3241422E0,2.5927644E0,2.8229606E0,3.0492961E0,3.3288867E0,3.6813753E0,3.8966243E0,4.20073E0,4.6728835E0,5.2628703E0,1.6396124E1,1.096315E1,9.035894E0,1.4844707E1,8.481843E0,6.082502E0,7.3873634E0,4.3234844E1,7.8863444E0,1.8959372E1],"categories":[],"categories_nodes":[],"categories_segments":[],"categories_sizes":[],"default_left":[0,0,0,0,0,0,0,0,0,0,0,0,0,0,0,0,0,0,0,0,0,0,0,0,0,0,0,0,0,0,0,0,0,0,0,0,0,0,0,0,0,0,0,0,0,0,0,0,0,0,0,0,0,0,0,0,0,0,0,0,0,0,0,0,0,0,0,0,0,0,0,0,0,0,0,0,0,0,0,0,0,0,0,0,0,0,0,0,0,0,0,0,0,0,0,0,0,0,0,0,0,0,0,0,0,0,0,0,0,0,0,0,0,0,0,0,0,0,0],"id":6,"left_children":[1,3,5,7,9,11,13,15,17,19,21,23,25,27,29,31,33,35,37,39,41,43,45,47,49,51,53,55,57,59,-1,61,63,65,67,69,71,73,75,77,79,81,83,85,87,89,91,93,95,97,99,101,103,105,107,-1,109,111,113,115,117,-1,-1,-1,-1,-1,-1,-1,-1,-1,-1,-1,-1,-1,-1,-1,-1,-1,-1,-1,-1,-1,-1,-1,-1,-1,-1,-1,-1,-1,-1,-1,-1,-1,-1,-1,-1,-1,-1,-1,-1,-1,-1,-1,-1,-1,-1,-1,-1,-1,-1,-1,-1,-1,-1,-1,-1,-1,-1],"loss_changes":[1.9027074E7,3.5695628E6,7.641087E6,5.306695E5,5.3924906E5,1.848282E6,1.580861E6,8.57965E4,5.9260375E4,7.3177805E4,6.098475E4,2.96326E5,2.68705E5,2.3959525E5,6.57205E5,1.82E4,9.353E3,9.568E3,8.227E3,1.22478125E4,8.52647E3,7.9701094E3,7.03575E3,3.5214125E4,4.22985E4,2.573775E4,4.8258E4,1.6271338E5,1.1455025E5,5.437155E5,0E0,1.70075E3,1.860875E3,1.177875E3,4.991875E2,1.2235625E3,6.7990625E2,3.13625E2,1.9060469E3,1.7608359E3,7.782617E2,1.176695E3,7.358887E2,5.724492E2,1.5265469E3,6.7678125E2,1.1854062E3,4.594125E3,5.135375E3,4.407625E3,5.502E3,2.069125E3,3.93525E3,1.30125E3,7.66975E3,0E0,1.01809375E4,1.09261E5,1.813775E4,6.0385175E5,2.779815E5,0E0,0E0,0E0,0E0,0E0,0E0,0E0,0E0,0E0,0E0,0E0,0E0,0E0,0E0,0E0,0E0,0E0,0E0,0E0,0E0,0E0,0E0,0E0,0E0,0E0,0E0,0E0,0E0,0E0,0E0,0E0,0E0,0E0,0E0,0E0,0E0,0E0,0E0,0E0,0E0,0E0,0E0,0E0,0E0,0E0,0E0,0E0,0E0,0E0,0E0,0E0,0E0,0E0,0E0,0E0,0E0,0E0,0E0],"parents":[2147483647,0,0,1,1,2,2,3,3,4,4,5,5,6,6,7,7,8,8,9,9,10,10,11,11,12,12,13,13,14,14,15,15,16,16,17,17,18,18,19,19,20,20,21,21,22,22,23,23,24,24,25,25,26,26,27,27,28,28,29,29,31,31,32,32,33,33,34,34,35,35,36,36,37,37,38,38,39,39,40,40,41,41,42,42,43,43,44,44,45,45,46,46,47,47,48,48,49,49,50,50,51,51,52,52,53,53,54,54,56,56,57,57,58,58,59,59,60,60],"right_children":[2,4,6,8,10,12,14,16,18,20,22,24,26,28,30,32,34,36,38,40,42,44,46,48,50,52,54,56,58,60,-1,62,64,66,68,70,72,74,76,78,80,82,84,86,88,90,92,94,96,98,100,102,104,106,108,-1,110,112,114,116,118,-1,-1,-1,-1,-1,-1,-1,-1,-1,-1,-1,-1,-1,-1,-1,-1,-1,-1,-1,-1,-1,-1,-1,-1,-1,-1,-1,-1,-1,-1,-1,-1,-1,-1,-1,-1,-1,-1,-1,-1,-1,-1,-1,-1,-1,-1,-1,-1,-1,-1,-1,-1,-1,-1,-1,-1,-1,-1],"split_conditions":[3.2666668E1,1.5333333E1,9.0666664E1,8.666667E0,2.3333334E1,5.4E1,1.3E1,5.3333335E0,1.2E1,1.9333334E1,2.8E1,4.2E1,6.7333336E1,2E0,6.54E2,3.3333333E0,7.306667E0,1.02E1,1.3333333E1,1.7333334E1,2.1333334E1,2.5333334E1,3E1,3.6866665E1,4.7333332E1,6E1,7.5333336E1,9E0,2E0,1.8E1,4.9424652E1,1.8266667E0,4E0,6.346667E0,8E0,9.333333E0,1.1333333E1,1.2666667E1,1.4666667E1,1.6E1,1.8E1,2.0366667E1,2.2273333E1,2.4E1,2.6666666E1,2.8666666E1,3.1333334E1,3.5066666E1,3.9333332E1,4.4666668E1,5.1333332E1,5.6666668E1,6.4666664E1,7.0666664E1,8.2E1,4.067675E1,8.7E1,8.8E1,6E0,7E1,1E1,-1.4964263E0,-1.393683E0,-1.3095955E0,-1.2248185E0,-1.1193255E0,-1.0408193E0,-9.8510456E-1,-9.356147E-1,-8.852107E-1,-8.1115943E-1,-7.237351E-1,-6.673047E-1,-6.175037E-1,-5.7108647E-1,-4.9064723E-1,-3.9991117E-1,-3.562356E-1,-2.6750538E-1,-1.9434385E-1,-1.13404326E-1,-1.0399895E-2,7.508648E-2,1.5961818E-1,2.3595679E-1,2.7903816E-1,3.591656E-1,4.6973005E-1,5.721222E-1,6.561327E-1,7.462834E-1,8.3989954E-1,9.484727E-1,1.1054463E0,1.2924966E0,1.4444675E0,1.6523516E0,1.8495522E0,2.0645406E0,2.3241422E0,2.5927644E0,2.8229606E0,3.0492961E0,3.3288867E0,3.6813753E0,3.8966243E0,4.20073E0,4.6728835E0,5.2628703E0,1.6396124E1,1.096315E1,9.035894E0,1.4844707E1,8.481843E0,6.082502E0,7.3873634E0,4.3234844E1,7.8863444E0,1.8959372E1],"split_indices":[0,0,0,0,0,0,2,0,0,0,0,0,0,2,0,0,0,0,0,0,0,0,0,0,0,0,0,3,3,2,0,0,0,0,0,0,0,0,0,0,0,0,0,0,0,0,0,0,0,0,0,0,0,0,0,0,1,1,2,1,3,0,0,0,0,0,0,0,0,0,0,0,0,0,0,0,0,0,0,0,0,0,0,0,0,0,0,0,0,0,0,0,0,0,0,0,0,0,0,0,0,0,0,0,0,0,0,0,0,0,0,0,0,0,0,0,0,0,0],"split_type":[0,0,0,0,0,0,0,0,0,0,0,0,0,0,0,0,0,0,0,0,0,0,0,0,0,0,0,0,0,0,0,0,0,0,0,0,0,0,0,0,0,0,0,0,0,0,0,0,0,0,0,0,0,0,0,0,0,0,0,0,0,0,0,0,0,0,0,0,0,0,0,0,0,0,0,0,0,0,0,0,0,0,0,0,0,0,0,0,0,0,0,0,0,0,0,0,0,0,0,0,0,0,0,0,0,0,0,0,0,0,0,0,0,0,0,0,0,0,0],"sum_hessian":[1.49384E5,1.23988E5,2.5396E4,7.6852E4,4.7136E4,2.4786E4,6.1E2,4.0604E4,3.6248E4,2.9073E4,1.8063E4,1.8204E4,6.582E3,3.98E2,2.12E2,2.0127E4,2.0477E4,1.9328E4,1.692E4,1.6789E4,1.2284E4,1.0078E4,7.985E3,1.0528E4,7.676E3,4.145E3,2.437E3,4.5E1,3.53E2,2.05E2,7E0,7.332E3,1.2795E4,1.0758E4,9.719E3,1.0153E4,9.175E3,6.846E3,1.0074E4,9.45E3,7.339E3,6.925E3,5.359E3,4.023E3,6.055E3,3.673E3,4.312E3,5.55E3,4.978E3,4.144E3,3.532E3,2.287E3,1.858E3,1.274E3,1.163E3,2E0,4.3E1,1.79E2,1.74E2,2.4E1,1.81E2,4.077E3,3.255E3,4.158E3,8.637E3,7.884E3,2.874E3,5.23E3,4.489E3,3.727E3,6.426E3,4.832E3,4.343E3,4.206E3,2.64E3,6.378E3,3.696E3,3.683E3,5.767E3,1.494E3,5.845E3,4.38E3,2.545E3,3.298E3,2.061E3,1.385E3,2.638E3,3.475E3,2.58E3,1.538E3,2.135E3,2.016E3,2.296E3,3.215E3,2.335E3,2.42E3,2.558E3,2.076E3,2.068E3,2.138E3,1.394E3,1.147E3,1.14E3,1.242E3,6.16E2,6.14E2,6.6E2,5.93E2,5.7E2,2.7E1,1.6E1,1.31E2,4.8E1,6E1,1.14E2,7E0,1.7E1,2.9E1,1.52E2],"tree_param":{"num_deleted":"0","num_feature":"5","num_nodes":"119","size_leaf_vector":"1"}},{"base_weights":[1.1789202E-2,-4.524556E0,2.2776485E1,-8.1355E0,2.071724E0,2.0264874E1,1.22266426E2,-1.0603649E1,-5.623158E0,-3.231383E-1,5.7933984E0,1.5534553E1,3.2930122E1,8.833839E1,1.8524776E2,-1.1924038E1,-9.30531E0,-6.695304E0,-4.080458E0,-1.4855431E0,1.3225837E0,4.45715E0,7.73939E0,1.2604731E1,1.9867762E1,2.8503586E1,4.0444263E1,1.746345E2,8.185492E1,1.7402802E2,4.509999E1,-1.3059486E1,-1.1272416E1,-9.886262E0,-8.661301E0,-7.533469E0,-6.0375814E0,-4.824186E0,-3.5667262E0,-2.2750573E0,-8.0054563E-1,6.0369825E-1,2.0349135E0,3.5164816E0,5.179933E0,6.9610734E0,8.456732E0,1.1156475E1,1.4540771E1,1.8201178E1,2.2335072E1,2.5856384E1,3.0484213E1,3.6522396E1,4.4705376E1,3.7964966E1,1.4304732E2,9.613911E1,6.817962E1,3.0346228E2,1.5529239E2,-1.3853427E0,-1.2766885E0,-1.154488E0,-1.0788065E0,-1.0366613E0,-9.6780795E-1,-8.86613E-1,-8.420739E-1,-7.723958E-1,-6.9593114E-1,-6.4994633E-1,-5.786055E-1,-5.139994E-1,-4.6165952E-1,-4.067287E-1,-3.4067726E-1,-2.7028748E-1,-2.0344035E-1,-1.2478596E-1,-5.472378E-2,2.0712433E-2,8.0697656E-2,1.6427723E-1,2.2850965E-1,3.0531806E-1,3.831318E-1,4.7350055E-1,5.760037E-1,6.7168987E-1,7.3764056E-1,8.1035423E-1,8.810517E-1,1.0425619E0,1.2235065E0,1.3758228E0,1.5471419E0,1.718784E0,1.922126E0,2.1368005E0,2.3336737E0,2.4479723E0,2.6310308E0,2.9008548E0,3.228115E0,3.5075958E0,3.7812924E0,4.206382E0,4.7375045E0,1.8462194E1,1.1662263E1,4.882672E0,1.0887922E1,9.350009E0,5.7998877E0,6.740968E0,3.9151554E1,2.161252E0,1.6630373E1],"categories":[],"categories_nodes":[],"categories_segments":[],"categories_sizes":[],"default_left":[0,0,0,0,0,0,0,0,0,0,0,0,0,0,0,0,0,0,0,0,0,0,0,0,0,0,0,0,0,0,0,0,0,0,0,0,0,0,0,0,0,0,0,0,0,0,0,0,0,0,0,0,0,0,0,0,0,0,0,0,0,0,0,0,0,0,0,0,0,0,0,0,0,0,0,0,0,0,0,0,0,0,0,0,0,0,0,0,0,0,0,0,0,0,0,0,0,0,0,0,0,0,0,0,0,0,0,0,0,0,0,0,0,0,0,0,0,0,0],"id":7,"left_children":[1,3,5,7,9,11,13,15,17,19,21,23,25,27,29,31,33,35,37,39,41,43,45,47,49,51,53,55,57,59,-1,61,63,65,67,69,71,73,75,77,79,81,83,85,87,89,91,93,95,97,99,101,103,105,107,-1,109,111,113,115,117,-1,-1,-1,-1,-1,-1,-1,-1,-1,-1,-1,-1,-1,-1,-1,-1,-1,-1,-1,-1,-1,-1,-1,-1,-1,-1,-1,-1,-1,-1,-1,-1,-1,-1,-1,-1,-1,-1,-1,-1,-1,-1,-1,-1,-1,-1,-1,-1,-1,-1,-1,-1,-1,-1,-1,-1,-1,-1],"loss_changes":[1.5426871E7,2.9669818E6,6.200045E6,4.990945E5,3.9276653E5,1.450046E6,1.28924E6,6.9499E4,6.595725E4,5.129701E4,4.4831562E4,2.23572E5,2.17808E5,2.08945E5,5.56609E5,1.474525E4,7.576125E3,1.2929E4,6.2335312E3,8.497094E3,5.6829004E3,6.9385156E3,3.8622188E3,2.93375E4,2.882975E4,2.094975E4,3.911E4,1.2054025E5,6.630725E4,4.52431E5,0E0,1.52675E3,1.564125E3,9.755E2,4.0425E2,1.0775625E3,1.4949375E3,4.1426562E2,7.611875E2,7.460781E2,9.5291846E2,4.4531055E2,5.431914E2,6.372539E2,1.4655938E3,2.92625E2,3.8467188E2,4.6203125E3,3.0636875E3,4.061875E3,2.273625E3,4.69E2,5.3375E3,1.05375E3,6.2155E3,0E0,5.9338125E3,1.03181625E5,4.4586625E4,4.93238E5,2.64309E5,0E0,0E0,0E0,0E0,0E0,0E0,0E0,0E0,0E0,0E0,0E0,0E0,0E0,0E0,0E0,0E0,0E0,0E0,0E0,0E0,0E0,0E0,0E0,0E0,0E0,0E0,0E0,0E0,0E0,0E0,0E0,0E0,0E0,0E0,0E0,0E0,0E0,0E0,0E0,0E0,0E0,0E0,0E0,0E0,0E0,0E0,0E0,0E0,0E0,0E0,0E0,0E0,0E0,0E0,0E0,0E0,0E0,0E0],"parents":[2147483647,0,0,1,1,2,2,3,3,4,4,5,5,6,6,7,7,8,8,9,9,10,10,11,11,12,12,13,13,14,14,15,15,16,16,17,17,18,18,19,19,20,20,21,21,22,22,23,23,24,24,25,25,26,26,27,27,28,28,29,29,31,31,32,32,33,33,34,34,35,35,36,36,37,37,38,38,39,39,40,40,41,41,42,42,43,43,44,44,45,45,46,46,47,47,48,48,49,49,50,50,51,51,52,52,53,53,54,54,56,56,57,57,58,58,59,59,60,60],"right_children":[2,4,6,8,10,12,14,16,18,20,22,24,26,28,30,32,34,36,38,40,42,44,46,48,50,52,54,56,58,60,-1,62,64,66,68,70,72,74,76,78,80,82,84,86,88,90,92,94,96,98,100,102,104,106,108,-1,110,112,114,116,118,-1,-1,-1,-1,-1,-1,-1,-1,-1,-1,-1,-1,-1,-1,-1,-1,-1,-1,-1,-1,-1,-1,-1,-1,-1,-1,-1,-1,-1,-1,-1,-1,-1,-1,-1,-1,-1,-1,-1,-1,-1,-1,-1,-1,-1,-1,-1,-1,-1,-1,-1,-1,-1,-1,-1,-1,-1,-1],"split_conditions":[3.3333332E1,1.5906667E1,9.0666664E1,8.666667E0,2.4E1,5.4E1,1.3E1,5.3333335E0,1.2666667E1,2E1,2.8666666E1,4.2666668E1,6.7333336E1,1E0,6.54E2,3.3333333E0,7.306667E0,1.0666667E1,1.4E1,1.8E1,2.2E1,2.6E1,3.0666666E1,3.8E1,4.8666668E1,5.8666668E1,7.5333336E1,9E0,2E0,1.8E1,4.509999E1,1.3333334E0,4.6666665E0,6E0,8E0,1E1,1.1333333E1,1.3333333E1,1.4666667E1,1.6666666E1,1.8666666E1,2.0666666E1,2.2666666E1,2.4666666E1,2.7333334E1,3E1,3.2E1,3.6E1,4.0093334E1,4.5333332E1,5.1333332E1,5.5333332E1,6.2666668E1,7.0666664E1,8.2E1,3.7964966E1,7.9E1,6E0,4E0,7E1,7E1,-1.3853427E0,-1.2766885E0,-1.154488E0,-1.0788065E0,-1.0366613E0,-9.6780795E-1,-8.86613E-1,-8.420739E-1,-7.723958E-1,-6.9593114E-1,-6.4994633E-1,-5.786055E-1,-5.139994E-1,-4.6165952E-1,-4.067287E-1,-3.4067726E-1,-2.7028748E-1,-2.0344035E-1,-1.2478596E-1,-5.472378E-2,2.0712433E-2,8.0697656E-2,1.6427723E-1,2.2850965E-1,3.0531806E-1,3.831318E-1,4.7350055E-1,5.760037E-1,6.7168987E-1,7.3764056E-1,8.1035423E-1,8.810517E-1,1.0425619E0,1.2235065E0,1.3758228E0,1.5471419E0,1.718784E0,1.922126E0,2.1368005E0,2.3336737E0,2.4479723E0,2.6310308E0,2.9008548E0,3.228115E0,3.5075958E0,3.7812924E0,4.206382E0,4.7375045E0,1.8462194E1,1.1662263E1,4.882672E0,1.0887922E1,9.350009E0,5.7998877E0,6.740968E0,3.9151554E1,2.161252E0,1.6630373E1],"split_indices":[0,0,0,0,0,0,2,0,0,0,0,0,0,2,0,0,0,0,0,0,0,0,0,0,0,0,0,3,3,2,0,0,0,0,0,0,0,0,0,0,0,0,0,0,0,0,0,0,0,0,0,0,0,0,0,0,1,2,2,1,1,0,0,0,0,0,0,0,0,0,0,0,0,0,0,0,0,0,0,0,0,0,0,0,0,0,0,0,0,0,0,0,0,0,0,0,0,0,0,0,0,0,0,0,0,0,0,0,0,0,0,0,0,0,0,0,0,0,0],"split_type":[0,0,0,0,0,0,0,0,0,0,0,0,0,0,0,0,0,0,0,0,0,0,0,0,0,0,0,0,0,0,0,0,0,0,0,0,0,0,0,0,0,0,0,0,0,0,0,0,0,0,0,0,0,0,0,0,0,0,0,0,0,0,0,0,0,0,0,0,0,0,0,0,0,0,0,0,0,0,0,0,0,0,0,0,0,0,0,0,0,0,0,0,0,0,0,0,0,0,0,0,0,0,0,0,0,0,0,0,0,0,0,0,0,0,0,0,0,0,0],"sum_hessian":[1.49384E5,1.24563E5,2.4821E4,8.0497E4,4.4066E4,2.4211E4,6.1E2,4.0604E4,3.9893E4,2.6813E4,1.7253E4,1.7629E4,6.582E3,3.98E2,2.12E2,2.0127E4,2.0477E4,2.3534E4,1.6359E4,1.5714E4,1.1099E4,1.0231E4,7.022E3,1.052E4,7.109E3,4.145E3,2.437E3,2.6E1,3.72E2,2.05E2,7E0,7.332E3,1.2795E4,1.0758E4,9.719E3,1.0343E4,1.3191E4,6.68E3,9.679E3,7.299E3,8.415E3,5.525E3,5.574E3,4.448E3,5.783E3,3.373E3,3.649E3,6.022E3,4.498E3,4.248E3,2.861E3,1.78E3,2.365E3,1.274E3,1.163E3,2E0,2.4E1,1.79E2,1.93E2,2.4E1,1.81E2,1.962E3,5.37E3,8.174E3,4.621E3,3.238E3,7.52E3,5.23E3,4.489E3,7.757E3,2.586E3,4.642E3,8.549E3,2.64E3,4.04E3,2.338E3,7.341E3,2.624E3,4.675E3,3.041E3,5.374E3,1.873E3,3.652E3,2.174E3,3.4E3,1.804E3,2.644E3,3.278E3,2.505E3,2.135E3,1.238E3,1.838E3,1.811E3,3.596E3,2.426E3,2.452E3,2.046E3,2.14E3,2.108E3,1.467E3,1.394E3,4.55E2,1.325E3,1.308E3,1.057E3,6.14E2,6.6E2,5.93E2,5.7E2,7E0,1.7E1,3.9E1,1.4E2,5.3E1,1.4E2,7E0,1.7E1,1.4E1,1.67E2],"tree_param":{"num_deleted":"0","num_feature":"5","num_nodes":"119","size_leaf_vector":"1"}},{"base_weights":[1.2224682E-2,-4.0721674E0,2.050889E1,-7.533229E0,1.5028875E0,1.8240068E1,1.1038151E2,-9.543497E0,-5.2811813E0,-7.3698026E-1,4.9966593E0,1.3981852E1,2.9641277E1,7.975269E1,1.672384E2,-1.0731878E1,-8.374962E0,-6.253388E0,-4.1703095E0,-1.8371389E0,7.6667464E-1,3.5726168E0,6.672623E0,1.1344751E1,1.7882126E1,2.5655931E1,3.6406494E1,1.596929E2,7.375232E1,1.9894289E2,8.497568E1,-1.1928513E1,-1.022187E1,-9.069838E0,-7.927906E0,-6.9516616E0,-5.784717E0,-4.588579E0,-3.4150705E0,-2.4442458E0,-1.0551764E0,1.7500672E-1,1.5310637E0,2.956042E0,4.418948E0,5.9735885E0,7.6115236E0,1.0041204E1,1.3087342E1,1.6381916E1,2.0103127E1,2.3782887E1,2.7947414E1,3.287587E1,4.0242523E1,3.543397E1,1.2994757E2,7.8328094E1,3.7757854E0,3.5728226E1,2.246382E2,6.9739914E1,3.5628716E1,-1.246879E0,-1.1663504E0,-1.0711898E0,-9.9096406E-1,-9.332692E-1,-8.891649E-1,-8.123309E-1,-7.578854E-1,-7.194945E-1,-6.7249405E-1,-6.006281E-1,-5.435183E-1,-4.843772E-1,-4.155049E-1,-3.6607322E-1,-3.2587227E-1,-2.687389E-1,-1.9643742E-1,-1.262713E-1,-7.191903E-2,-2.4503654E-2,4.2288464E-2,1.3020256E-1,1.89676E-1,2.5469336E-1,3.44833E-1,4.26165E-1,4.9472147E-1,5.455766E-1,6.3909495E-1,7.293629E-1,7.929954E-1,9.1264534E-1,1.0758625E0,1.2382964E0,1.3925031E0,1.5469859E0,1.7300045E0,1.923266E0,2.1004734E0,2.32736E0,2.5521588E0,2.694803E0,2.9915466E0,3.157406E0,3.403735E0,3.7864518E0,4.264584E0,7.1084566E0,1.41109085E1,7.0139847E0,1.2174731E1,6.151134E0,1.9595349E0,3.1311445E1,1.7203234E1,2.891775E0,8.064796E0],"categories":[],"categories_nodes":[],"categories_segments":[],"categories_sizes":[],"default_left":[0,0,0,0,0,0,0,0,0,0,0,0,0,0,0,0,0,0,0,0,0,0,0,0,0,0,0,0,0,0,0,0,0,0,0,0,0,0,0,0,0,0,0,0,0,0,0,0,0,0,0,0,0,0,0,0,0,0,0,0,0,0,0,0,0,0,0,0,0,0,0,0,0,0,0,0,0,0,0,0,0,0,0,0,0,0,0,0,0,0,0,0,0,0,0,0,0,0,0,0,0,0,0,0,0,0,0,0,0,0,0,0,0,0,0,0,0,0,0,0,0],"id":8,"left_children":[1,3,5,7,9,11,13,15,17,19,21,23,25,27,29,31,33,35,37,39,41,43,45,47,49,51,53,55,57,59,61,63,65,67,69,71,73,75,77,79,81,83,85,87,89,91,93,95,97,99,101,103,105,107,109,-1,111,113,-1,115,117,119,-1,-1,-1,-1,-1,-1,-1,-1,-1,-1,-1,-1,-1,-1,-1,-1,-1,-1,-1,-1,-1,-1,-1,-1,-1,-1,-1,-1,-1,-1,-1,-1,-1,-1,-1,-1,-1,-1,-1,-1,-1,-1,-1,-1,-1,-1,-1,-1,-1,-1,-1,-1,-1,-1,-1,-1,-1,-1,-1],"loss_changes":[1.250606E7,2.4035495E6,5.059314E6,3.478795E5,3.733781E5,1.175049E6,1.0506945E6,5.6297E4,3.912275E4,4.8097332E4,4.446078E4,1.81129E5,1.76555E5,1.7961075E5,5.3862E5,1.216225E4,6.2895E3,6.285375E3,5.3295625E3,7.9682188E3,5.555801E3,5.2464453E3,5.5733438E3,2.37675E4,2.3361E4,1.713025E4,3.169625E4,1.1027994E5,5.8476625E4,6.33633E5,2.2730447E5,7.148125E2,2.05425E3,2.921875E2,7.89E2,3.795E2,8.635625E2,1.1843438E3,2.1986719E2,1.0974414E3,5.1090527E2,7.21235E2,4.4647656E2,1.1661758E3,3.3173438E2,1.0267031E3,3.1164062E2,3.8544375E3,2.4821875E3,3.290375E3,1.842E3,1.432E3,2.850125E3,8.53125E2,5.03775E3,0E0,6.3943438E3,1.08784375E5,0E0,7.9456914E3,5.60511E5,2.3939969E4,0E0,0E0,0E0,0E0,0E0,0E0,0E0,0E0,0E0,0E0,0E0,0E0,0E0,0E0,0E0,0E0,0E0,0E0,0E0,0E0,0E0,0E0,0E0,0E0,0E0,0E0,0E0,0E0,0E0,0E0,0E0,0E0,0E0,0E0,0E0,0E0,0E0,0E0,0E0,0E0,0E0,0E0,0E0,0E0,0E0,0E0,0E0,0E0,0E0,0E0,0E0,0E0,0E0,0E0,0E0,0E0,0E0,0E0,0E0],"parents":[2147483647,0,0,1,1,2,2,3,3,4,4,5,5,6,6,7,7,8,8,9,9,10,10,11,11,12,12,13,13,14,14,15,15,16,16,17,17,18,18,19,19,20,20,21,21,22,22,23,23,24,24,25,25,26,26,27,27,28,28,29,29,30,30,31,31,32,32,33,33,34,34,35,35,36,36,37,37,38,38,39,39,40,40,41,41,42,42,43,43,44,44,45,45,46,46,47,47,48,48,49,49,50,50,51,51,52,52,53,53,54,54,56,56,57,57,59,59,60,60,61,61],"right_children":[2,4,6,8,10,12,14,16,18,20,22,24,26,28,30,32,34,36,38,40,42,44,46,48,50,52,54,56,58,60,62,64,66,68,70,72,74,76,78,80,82,84,86,88,90,92,94,96,98,100,102,104,106,108,110,-1,112,114,-1,116,118,120,-1,-1,-1,-1,-1,-1,-1,-1,-1,-1,-1,-1,-1,-1,-1,-1,-1,-1,-1,-1,-1,-1,-1,-1,-1,-1,-1,-1,-1,-1,-1,-1,-1,-1,-1,-1,-1,-1,-1,-1,-1,-1,-1,-1,-1,-1,-1,-1,-1,-1,-1,-1,-1,-1,-1,-1,-1,-1,-1],"split_conditions":[3.3333332E1,1.5333333E1,9.0666664E1,8.666667E0,2.3333334E1,5.4E1,1.3E1,5.3333335E0,1.2E1,1.9333334E1,2.8E1,4.2666668E1,6.7333336E1,1E0,2.2E1,2.6666667E0,6.6666665E0,1E1,1.4E1,1.7333334E1,2.1333334E1,2.6E1,3.0666666E1,3.8E1,4.8666668E1,6E1,7.5333336E1,9E0,9E1,7E1,1.2E1,1.3333334E0,4E0,5.82E0,8E0,9.333333E0,1.0846666E1,1.3333333E1,1.4666667E1,1.6666666E1,1.8666666E1,2E1,2.2273333E1,2.4666666E1,2.7333334E1,2.9333334E1,3.2E1,3.5333332E1,4.0093334E1,4.5333332E1,5.1333332E1,5.8666668E1,6.4666664E1,7.0666664E1,8.2E1,3.543397E1,1E1,8.8E1,3.7757854E0,1.8E1,7.8E1,1E1,3.5628716E1,-1.246879E0,-1.1663504E0,-1.0711898E0,-9.9096406E-1,-9.332692E-1,-8.891649E-1,-8.123309E-1,-7.578854E-1,-7.194945E-1,-6.7249405E-1,-6.006281E-1,-5.435183E-1,-4.843772E-1,-4.155049E-1,-3.6607322E-1,-3.2587227E-1,-2.687389E-1,-1.9643742E-1,-1.262713E-1,-7.191903E-2,-2.4503654E-2,4.2288464E-2,1.3020256E-1,1.89676E-1,2.5469336E-1,3.44833E-1,4.26165E-1,4.9472147E-1,5.455766E-1,6.3909495E-1,7.293629E-1,7.929954E-1,9.1264534E-1,1.0758625E0,1.2382964E0,1.3925031E0,1.5469859E0,1.7300045E0,1.923266E0,2.1004734E0,2.32736E0,2.5521588E0,2.694803E0,2.9915466E0,3.157406E0,3.403735E0,3.7864518E0,4.264584E0,7.1084566E0,1.41109085E1,7.0139847E0,1.2174731E1,6.151134E0,1.9595349E0,3.1311445E1,1.7203234E1,2.891775E0,8.064796E0],"split_indices":[0,0,0,0,0,0,2,0,0,0,0,0,0,2,2,0,0,0,0,0,0,0,0,0,0,0,0,3,1,1,3,0,0,0,0,0,0,0,0,0,0,0,0,0,0,0,0,0,0,0,0,0,0,0,0,0,3,1,0,2,1,3,0,0,0,0,0,0,0,0,0,0,0,0,0,0,0,0,0,0,0,0,0,0,0,0,0,0,0,0,0,0,0,0,0,0,0,0,0,0,0,0,0,0,0,0,0,0,0,0,0,0,0,0,0,0,0,0,0,0,0],"split_type":[0,0,0,0,0,0,0,0,0,0,0,0,0,0,0,0,0,0,0,0,0,0,0,0,0,0,0,0,0,0,0,0,0,0,0,0,0,0,0,0,0,0,0,0,0,0,0,0,0,0,0,0,0,0,0,0,0,0,0,0,0,0,0,0,0,0,0,0,0,0,0,0,0,0,0,0,0,0,0,0,0,0,0,0,0,0,0,0,0,0,0,0,0,0,0,0,0,0,0,0,0,0,0,0,0,0,0,0,0,0,0,0,0,0,0,0,0,0,0,0,0],"sum_hessian":[1.49384E5,1.24563E5,2.4821E4,7.6852E4,4.7711E4,2.4211E4,6.1E2,4.0604E4,3.6248E4,2.9073E4,1.8638E4,1.7629E4,6.582E3,3.98E2,2.12E2,2.0127E4,2.0477E4,1.9328E4,1.692E4,1.6789E4,1.2284E4,1.0078E4,8.56E3,1.052E4,7.109E3,4.145E3,2.437E3,2.6E1,3.72E2,1.52E2,6E1,6.008E3,1.4119E4,8.009E3,1.2468E4,7.757E3,1.1571E4,1.0886E4,6.034E3,9.45E3,7.339E3,6.925E3,5.359E3,5.833E3,4.245E3,4.911E3,3.649E3,6.022E3,4.498E3,4.248E3,2.861E3,2.287E3,1.858E3,1.274E3,1.163E3,2E0,2.4E1,3.29E2,4.3E1,2.1E1,1.31E2,5.8E1,2E0,1.962E3,4.046E3,5.482E3,8.637E3,3.215E3,4.794E3,7.979E3,4.489E3,3.727E3,4.03E3,7.072E3,4.499E3,6.846E3,4.04E3,2.338E3,3.696E3,6.269E3,3.181E3,4.535E3,2.804E3,2.57E3,4.355E3,3.298E3,2.061E3,3.189E3,2.644E3,3.278E3,9.67E2,2.198E3,2.713E3,1.838E3,1.811E3,2.653E3,3.369E3,2.452E3,2.046E3,2.14E3,2.108E3,1.467E3,1.394E3,1.78E3,5.07E2,1.242E3,6.16E2,6.14E2,6.6E2,5.93E2,5.7E2,5E0,1.9E1,2.79E2,5E1,7E0,1.4E1,4.7E1,8.4E1,1.3E1,4.5E1],"tree_param":{"num_deleted":"0","num_feature":"5","num_nodes":"121","size_leaf_vector":"1"}},{"base_weights":[1.242018E-2,-3.665016E0,1.8466862E1,-6.5908804E0,1.679798E0,1.6417595E1,9.9642586E1,-8.589341E0,-4.5566373E0,-2.6061955E-1,4.695254E0,1.2764829E1,2.7194984E1,7.197697E1,1.5099911E2,-9.938516E0,-7.7554345E0,-5.425849E0,-3.305937E0,-1.1991165E0,1.0680958E0,3.6123018E0,6.272368E0,1.0357529E1,1.655865E1,2.421197E1,3.422058E1,1.2832234E2,6.445193E1,1.794187E2,7.7241806E1,-1.0736063E1,-9.432946E0,-8.374139E0,-7.140438E0,-6.108867E0,-4.889875E0,-3.8992553E0,-2.8960955E0,-1.8395771E0,-6.4344144E-1,4.824525E-1,1.6484002E0,2.856783E0,4.1928153E0,5.769684E0,6.9969053E0,9.15685E0,1.2093978E1,1.4974216E1,1.8322472E1,2.2415712E1,2.7027237E1,3.229536E1,3.8388722E0,3.307171E1,1.11606285E2,7.826158E1,4.987941E1,3.252407E1,2.0254192E2,6.295163E1,3.325347E1,-1.1222547E0,-1.0497441E0,-9.6409035E-1,-9.1467476E-1,-8.588938E-1,-8.011877E-1,-7.5848764E-1,-7.008247E-1,-6.475645E-1,-5.9013027E-1,-5.074224E-1,-4.49495E-1,-4.1419956E-1,-3.7396476E-1,-3.073678E-1,-2.6013598E-1,-2.1640539E-1,-1.6570298E-1,-8.2931735E-2,-2.2054236E-2,1.4415823E-2,6.558665E-2,1.3471685E-1,1.8405585E-1,2.4934816E-1,3.103627E-1,3.8356137E-1,4.6585265E-1,5.435625E-1,6.120591E-1,6.750378E-1,7.137396E-1,8.428165E-1,1.0041949E0,1.13208E0,1.2681822E0,1.4468716E0,1.5942843E0,1.7310704E0,1.9115418E0,2.1355658E0,2.3472412E0,2.5102022E0,2.7696548E0,3.0638769E0,3.408444E0,1.263026E1,8.08355E0,3.5937283E0,8.971343E0,3.7313614E0,5.696544E0,5.6129103E0,1.7766451E0,2.8245533E1,1.550315E1,2.6232536E0,7.2758493E0],"categories":[],"categories_nodes":[],"categories_segments":[],"categories_sizes":[],"default_left":[0,0,0,0,0,0,0,0,0,0,0,0,0,0,0,0,0,0,0,0,0,0,0,0,0,0,0,0,0,0,0,0,0,0,0,0,0,0,0,0,0,0,0,0,0,0,0,0,0,0,0,0,0,0,0,0,0,0,0,0,0,0,0,0,0,0,0,0,0,0,0,0,0,0,0,0,0,0,0,0,0,0,0,0,0,0,0,0,0,0,0,0,0,0,0,0,0,0,0,0,0,0,0,0,0,0,0,0,0,0,0,0,0,0,0,0,0,0,0,0,0],"id":9,"left_children":[1,3,5,7,9,11,13,15,17,19,21,23,25,27,29,31,33,35,37,39,41,43,45,47,49,51,53,55,57,59,61,63,65,67,69,71,73,75,77,79,81,83,85,87,89,91,93,95,97,99,101,103,105,107,-1,-1,109,111,113,115,117,119,-1,-1,-1,-1,-1,-1,-1,-1,-1,-1,-1,-1,-1,-1,-1,-1,-1,-1,-1,-1,-1,-1,-1,-1,-1,-1,-1,-1,-1,-1,-1,-1,-1,-1,-1,-1,-1,-1,-1,-1,-1,-1,-1,-1,-1,-1,-1,-1,-1,-1,-1,-1,-1,-1,-1,-1,-1,-1,-1],"loss_changes":[1.0138084E7,1.9479681E6,4.127521E6,3.272135E5,2.5784798E5,9.528135E5,8.572465E5,4.560725E4,4.335175E4,3.3438215E4,2.9446125E4,1.64996E5,1.275985E5,1.6090562E5,4.32622E5,6.151375E3,9.490375E3,8.5858125E3,3.9669062E3,5.5915957E3,3.7715557E3,4.475672E3,2.5175E3,2.2963125E4,1.934125E4,2.116425E4,1.339725E4,1.18719E5,6.7335875E4,5.131035E5,2.016054E5,5.798125E2,4.771875E2,9.043125E2,6.8675E2,7.4928125E2,9.37625E2,2.4335938E2,4.9864844E2,4.288125E2,6.6137134E2,3.2408777E2,3.2022363E2,3.912422E2,9.443203E2,4.5345312E2,5.1296875E1,4.1379375E3,1.9111875E3,1.5825E3,2.33025E3,2.44925E3,1.459125E3,2.67225E3,0E0,0E0,9.6878125E3,8.4020375E4,1.3456719E4,6.6665723E3,4.573775E5,1.9337219E4,0E0,0E0,0E0,0E0,0E0,0E0,0E0,0E0,0E0,0E0,0E0,0E0,0E0,0E0,0E0,0E0,0E0,0E0,0E0,0E0,0E0,0E0,0E0,0E0,0E0,0E0,0E0,0E0,0E0,0E0,0E0,0E0,0E0,0E0,0E0,0E0,0E0,0E0,0E0,0E0,0E0,0E0,0E0,0E0,0E0,0E0,0E0,0E0,0E0,0E0,0E0,0E0,0E0,0E0,0E0,0E0,0E0,0E0,0E0],"parents":[2147483647,0,0,1,1,2,2,3,3,4,4,5,5,6,6,7,7,8,8,9,9,10,10,11,11,12,12,13,13,14,14,15,15,16,16,17,17,18,18,19,19,20,20,21,21,22,22,23,23,24,24,25,25,26,26,27,27,28,28,29,29,30,30,31,31,32,32,33,33,34,34,35,35,36,36,37,37,38,38,39,39,40,40,41,41,42,42,43,43,44,44,45,45,46,46,47,47,48,48,49,49,50,50,51,51,52,52,53,53,56,56,57,57,58,58,59,59,60,60,61,61],"right_children":[2,4,6,8,10,12,14,16,18,20,22,24,26,28,30,32,34,36,38,40,42,44,46,48,50,52,54,56,58,60,62,64,66,68,70,72,74,76,78,80,82,84,86,88,90,92,94,96,98,100,102,104,106,108,-1,-1,110,112,114,116,118,120,-1,-1,-1,-1,-1,-1,-1,-1,-1,-1,-1,-1,-1,-1,-1,-1,-1,-1,-1,-1,-1,-1,-1,-1,-1,-1,-1,-1,-1,-1,-1,-1,-1,-1,-1,-1,-1,-1,-1,-1,-1,-1,-1,-1,-1,-1,-1,-1,-1,-1,-1,-1,-1,-1,-1,-1,-1,-1,-1],"split_conditions":[3.3333332E1,1.5906667E1,9.0666664E1,8.666667E0,2.4E1,5.5333332E1,1.3E1,4.6666665E0,1.2666667E1,2E1,2.8666666E1,4.3333332E1,7.0666664E1,2E0,2.2E1,2.6666667E0,6.346667E0,1.0666667E1,1.4E1,1.8E1,2.2E1,2.6E1,3.1333334E1,3.8666668E1,4.8666668E1,6.2666668E1,8.2E1,9E0,2E0,7E1,1.2E1,1.3333334E0,4E0,5.82E0,7.306667E0,9.333333E0,1.2E1,1.3333333E1,1.5333333E1,1.6666666E1,1.9333334E1,2.0666666E1,2.2666666E1,2.4666666E1,2.7333334E1,3E1,3.2E1,3.6E1,4.0666668E1,4.6666668E1,5.1333332E1,5.8666668E1,6.4666664E1,7.5333336E1,3.8388722E0,3.307171E1,8.7E1,6E0,3E0,1.8E1,7.8E1,1E1,3.325347E1,-1.1222547E0,-1.0497441E0,-9.6409035E-1,-9.1467476E-1,-8.588938E-1,-8.011877E-1,-7.5848764E-1,-7.008247E-1,-6.475645E-1,-5.9013027E-1,-5.074224E-1,-4.49495E-1,-4.1419956E-1,-3.7396476E-1,-3.073678E-1,-2.6013598E-1,-2.1640539E-1,-1.6570298E-1,-8.2931735E-2,-2.2054236E-2,1.4415823E-2,6.558665E-2,1.3471685E-1,1.8405585E-1,2.4934816E-1,3.103627E-1,3.8356137E-1,4.6585265E-1,5.435625E-1,6.120591E-1,6.750378E-1,7.137396E-1,8.428165E-1,1.0041949E0,1.13208E0,1.2681822E0,1.4468716E0,1.5942843E0,1.7310704E0,1.9115418E0,2.1355658E0,2.3472412E0,2.5102022E0,2.7696548E0,3.0638769E0,3.408444E0,1.263026E1,8.08355E0,3.5937283E0,8.971343E0,3.7313614E0,5.696544E0,5.6129103E0,1.7766451E0,2.8245533E1,1.550315E1,2.6232536E0,7.2758493E0],"split_indices":[0,0,0,0,0,0,2,0,0,0,0,0,0,2,2,0,0,0,0,0,0,0,0,0,0,0,0,3,3,1,3,0,0,0,0,0,0,0,0,0,0,0,0,0,0,0,0,0,0,0,0,0,0,0,0,0,1,2,3,2,1,3,0,0,0,0,0,0,0,0,0,0,0,0,0,0,0,0,0,0,0,0,0,0,0,0,0,0,0,0,0,0,0,0,0,0,0,0,0,0,0,0,0,0,0,0,0,0,0,0,0,0,0,0,0,0,0,0,0,0,0],"split_type":[0,0,0,0,0,0,0,0,0,0,0,0,0,0,0,0,0,0,0,0,0,0,0,0,0,0,0,0,0,0,0,0,0,0,0,0,0,0,0,0,0,0,0,0,0,0,0,0,0,0,0,0,0,0,0,0,0,0,0,0,0,0,0,0,0,0,0,0,0,0,0,0,0,0,0,0,0,0,0,0,0,0,0,0,0,0,0,0,0,0,0,0,0,0,0,0,0,0,0,0,0,0,0,0,0,0,0,0,0,0,0,0,0,0,0,0,0,0,0,0,0],"sum_hessian":[1.49384E5,1.24563E5,2.4821E4,8.0497E4,4.4066E4,2.4211E4,6.1E2,4.0604E4,3.9893E4,2.6813E4,1.7253E4,1.8084E4,6.127E3,3.98E2,2.12E2,1.5506E4,2.5098E4,2.3534E4,1.6359E4,1.5714E4,1.1099E4,1.0231E4,7.022E3,1.1066E4,7.018E3,4.304E3,1.823E3,4.5E1,3.53E2,1.52E2,6E1,6.008E3,9.498E3,1.2505E4,1.2593E4,1.0343E4,1.3191E4,6.68E3,9.679E3,7.299E3,8.415E3,5.525E3,5.574E3,4.448E3,5.783E3,4.151E3,2.871E3,6.546E3,4.52E3,3.702E3,3.316E3,2.633E3,1.671E3,1.253E3,5.7E2,2E0,4.3E1,1.79E2,1.74E2,2.1E1,1.31E2,5.8E1,2E0,1.962E3,4.046E3,5.482E3,4.016E3,7.836E3,4.669E3,2.874E3,9.719E3,3.727E3,6.616E3,8.985E3,4.206E3,2.64E3,4.04E3,6.034E3,3.645E3,2.624E3,4.675E3,5.845E3,2.57E3,1.873E3,3.652E3,2.174E3,3.4E3,1.804E3,2.644E3,3.278E3,2.505E3,2.135E3,2.016E3,1.06E3,1.811E3,3.596E3,2.95E3,1.961E3,2.559E3,2.443E3,1.259E3,1.467E3,1.849E3,1.325E3,1.308E3,4.41E2,1.23E3,6.6E2,5.93E2,2.7E1,1.6E1,3.9E1,1.4E2,6.5E1,1.09E2,7E0,1.4E1,4.7E1,8.4E1,1.3E1,4.5E1],"tree_param":{"num_deleted":"0","num_feature":"5","num_nodes":"121","size_leaf_vector":"1"}},{"base_weights":[1.2478167E-2,-3.2985694E0,1.6628275E1,-5.931926E0,1.511906E0,1.4777116E1,8.995667E1,-7.730584E0,-4.101063E0,-2.3456065E-1,4.2259574E0,1.1133706E1,2.3535717E1,6.496919E1,1.3634189E2,-8.696246E0,-6.7810493E0,-4.8833575E0,-2.9754264E0,-1.0792358E0,9.613227E-1,3.25121E0,5.645492E0,9.040186E0,1.4047496E1,2.0410774E1,2.9518312E1,1.16659355E2,5.806886E1,1.2701661E2,3.5942505E1,-9.529808E0,-8.217877E0,-7.2082424E0,-6.3074937E0,-5.4981003E0,-4.4009604E0,-3.5094478E0,-2.606545E0,-1.6556717E0,-5.791098E-1,4.3422213E-1,1.483618E0,2.761598E0,3.9771717E0,5.0762362E0,6.170156E0,7.887959E0,1.0189902E1,1.2842975E1,1.5704849E1,1.8557636E1,2.2211424E1,2.6673647E1,3.260889E1,3.0866926E1,1.0091642E2,7.0505226E1,4.4945343E1,2.494175E2,1.095054E2,-9.8503715E-1,-9.12539E-1,-8.4191895E-1,-7.8600353E-1,-7.3464626E-1,-6.826653E-1,-6.4668196E-1,-6.120469E-1,-5.828254E-1,-5.311262E-1,-4.743765E-1,-4.214289E-1,-3.7279522E-1,-3.3657756E-1,-2.987579E-1,-2.4848008E-1,-1.9477305E-1,-1.4913625E-1,-7.464E-2,-1.9849626E-2,1.2172445E-2,5.8640163E-2,1.2076964E-1,1.6536075E-1,2.3512149E-1,3.072369E-1,3.6398137E-1,4.1928616E-1,4.8923156E-1,5.389214E-1,5.916636E-1,6.4240485E-1,7.368491E-1,8.471875E-1,9.475256E-1,1.0862027E0,1.2121271E0,1.3561262E0,1.5165116E0,1.6605648E0,1.7644835E0,1.9221705E0,2.1126962E0,2.3532171E0,2.5656636E0,2.757953E0,3.068173E0,3.4556572E0,1.4506902E1,8.864244E0,5.722261E0,1.0484811E1,4.988027E0,2.6457407E0,5.1217804E0,3.236497E1,3.1750627E0,1.2403572E1],"categories":[],"categories_nodes":[],"categories_segments":[],"categories_sizes":[],"default_left":[0,0,0,0,0,0,0,0,0,0,0,0,0,0,0,0,0,0,0,0,0,0,0,0,0,0,0,0,0,0,0,0,0,0,0,0,0,0,0,0,0,0,0,0,0,0,0,0,0,0,0,0,0,0,0,0,0,0,0,0,0,0,0,0,0,0,0,0,0,0,0,0,0,0,0,0,0,0,0,0,0,0,0,0,0,0,0,0,0,0,0,0,0,0,0,0,0,0,0,0,0,0,0,0,0,0,0,0,0,0,0,0,0,0,0,0,0,0,0],"id":10,"left_children":[1,3,5,7,9,11,13,15,17,19,21,23,25,27,29,31,33,35,37,39,41,43,45,47,49,51,53,55,57,59,-1,61,63,65,67,69,71,73,75,77,79,81,83,85,87,89,91,93,95,97,99,101,103,105,107,-1,109,111,113,115,117,-1,-1,-1,-1,-1,-1,-1,-1,-1,-1,-1,-1,-1,-1,-1,-1,-1,-1,-1,-1,-1,-1,-1,-1,-1,-1,-1,-1,-1,-1,-1,-1,-1,-1,-1,-1,-1,-1,-1,-1,-1,-1,-1,-1,-1,-1,-1,-1,-1,-1,-1,-1,-1,-1,-1,-1,-1,-1],"loss_changes":[8.218574E6,1.577948E6,3.3680725E6,2.65056E5,2.0887856E5,7.72371E5,6.993215E5,3.717275E4,3.5115312E4,2.7086744E4,2.3855812E4,1.041905E5,1.3235825E5,1.3554088E5,3.9745375E5,7.94775E3,4.0971875E3,6.9550625E3,3.2135938E3,4.5295273E3,3.05521E3,3.625875E3,2.0662344E3,1.3106E4,1.4068E4,1.518775E4,2.056425E4,1.07899E5,5.4607E4,4.14225E5,0E0,8.6075E2,8.55625E2,5.173125E2,2.500625E2,6.0709375E2,8.242031E2,1.9719531E2,4.416172E2,3.474082E2,5.357229E2,2.6272156E2,2.594912E2,7.7252344E2,2.8445703E2,1.6785156E2,1.9692188E2,1.4469062E3,2.288625E3,1.984375E3,1.2086875E3,1.0610625E3,2.89175E3,4.670625E2,3.30875E3,0E0,1.0985531E4,7.610975E4,1.46466875E4,3.5124362E5,2.016855E5,0E0,0E0,0E0,0E0,0E0,0E0,0E0,0E0,0E0,0E0,0E0,0E0,0E0,0E0,0E0,0E0,0E0,0E0,0E0,0E0,0E0,0E0,0E0,0E0,0E0,0E0,0E0,0E0,0E0,0E0,0E0,0E0,0E0,0E0,0E0,0E0,0E0,0E0,0E0,0E0,0E0,0E0,0E0,0E0,0E0,0E0,0E0,0E0,0E0,0E0,0E0,0E0,0E0,0E0,0E0,0E0,0E0,0E0],"parents":[2147483647,0,0,1,1,2,2,3,3,4,4,5,5,6,6,7,7,8,8,9,9,10,10,11,11,12,12,13,13,14,14,15,15,16,16,17,17,18,18,19,19,20,20,21,21,22,22,23,23,24,24,25,25,26,26,27,27,28,28,29,29,31,31,32,32,33,33,34,34,35,35,36,36,37,37,38,38,39,39,40,40,41,41,42,42,43,43,44,44,45,45,46,46,47,47,48,48,49,49,50,50,51,51,52,52,53,53,54,54,56,56,57,57,58,58,59,59,60,60],"right_children":[2,4,6,8,10,12,14,16,18,20,22,24,26,28,30,32,34,36,38,40,42,44,46,48,50,52,54,56,58,60,-1,62,64,66,68,70,72,74,76,78,80,82,84,86,88,90,92,94,96,98,100,102,104,106,108,-1,110,112,114,116,118,-1,-1,-1,-1,-1,-1,-1,-1,-1,-1,-1,-1,-1,-1,-1,-1,-1,-1,-1,-1,-1,-1,-1,-1,-1,-1,-1,-1,-1,-1,-1,-1,-1,-1,-1,-1,-1,-1,-1,-1,-1,-1,-1,-1,-1,-1,-1,-1,-1,-1,-1,-1,-1,-1,-1,-1,-1,-1],"split_conditions":[3.3333332E1,1.5906667E1,9.0666664E1,8.666667E0,2.4E1,5.2666668E1,1.3E1,5.3333335E0,1.2666667E1,2E1,2.8666666E1,4.2E1,6.7333336E1,2E0,6.54E2,3.3333333E0,7.306667E0,1.0666667E1,1.4E1,1.8E1,2.2E1,2.6666666E1,3.0666666E1,3.6866665E1,4.7333332E1,5.8666668E1,7.5333336E1,9E0,2E0,1.8E1,3.5942505E1,1.8266667E0,4.6666665E0,6.346667E0,8E0,9.333333E0,1.1333333E1,1.3333333E1,1.4666667E1,1.6666666E1,1.9333334E1,2.0366667E1,2.2273333E1,2.5333334E1,2.7333334E1,3E1,3.2E1,3.5066666E1,3.9333332E1,4.4666668E1,5.0666668E1,5.5333332E1,6.2666668E1,7.0666664E1,8.2E1,3.0866926E1,7.9E1,8.8E1,8.9E1,7E1,1E1,-9.8503715E-1,-9.12539E-1,-8.4191895E-1,-7.8600353E-1,-7.3464626E-1,-6.826653E-1,-6.4668196E-1,-6.120469E-1,-5.828254E-1,-5.311262E-1,-4.743765E-1,-4.214289E-1,-3.7279522E-1,-3.3657756E-1,-2.987579E-1,-2.4848008E-1,-1.9477305E-1,-1.4913625E-1,-7.464E-2,-1.9849626E-2,1.2172445E-2,5.8640163E-2,1.2076964E-1,1.6536075E-1,2.3512149E-1,3.072369E-1,3.6398137E-1,4.1928616E-1,4.8923156E-1,5.389214E-1,5.916636E-1,6.4240485E-1,7.368491E-1,8.471875E-1,9.475256E-1,1.0862027E0,1.2121271E0,1.3561262E0,1.5165116E0,1.6605648E0,1.7644835E0,1.9221705E0,2.1126962E0,2.3532171E0,2.5656636E0,2.757953E0,3.068173E0,3.4556572E0,1.4506902E1,8.864244E0,5.722261E0,1.0484811E1,4.988027E0,2.6457407E0,5.1217804E0,3.236497E1,3.1750627E0,1.2403572E1],"split_indices":[0,0,0,0,0,0,2,0,0,0,0,0,0,2,0,0,0,0,0,0,0,0,0,0,0,0,0,3,3,2,0,0,0,0,0,0,0,0,0,0,0,0,0,0,0,0,0,0,0,0,0,0,0,0,0,0,1,1,1,1,3,0,0,0,0,0,0,0,0,0,0,0,0,0,0,0,0,0,0,0,0,0,0,0,0,0,0,0,0,0,0,0,0,0,0,0,0,0,0,0,0,0,0,0,0,0,0,0,0,0,0,0,0,0,0,0,0,0,0],"split_type":[0,0,0,0,0,0,0,0,0,0,0,0,0,0,0,0,0,0,0,0,0,0,0,0,0,0,0,0,0,0,0,0,0,0,0,0,0,0,0,0,0,0,0,0,0,0,0,0,0,0,0,0,0,0,0,0,0,0,0,0,0,0,0,0,0,0,0,0,0,0,0,0,0,0,0,0,0,0,0,0,0,0,0,0,0,0,0,0,0,0,0,0,0,0,0,0,0,0,0,0,0,0,0,0,0,0,0,0,0,0,0,0,0,0,0,0,0,0,0],"sum_hessian":[1.49384E5,1.24563E5,2.4821E4,8.0497E4,4.4066E4,2.4211E4,6.1E2,4.0604E4,3.9893E4,2.6813E4,1.7253E4,1.71E4,7.111E3,3.98E2,2.12E2,2.0127E4,2.0477E4,2.3534E4,1.6359E4,1.5714E4,1.1099E4,1.0231E4,7.022E3,9.953E3,7.147E3,4.674E3,2.437E3,4.5E1,3.53E2,2.05E2,7E0,7.332E3,1.2795E4,1.0758E4,9.719E3,1.0343E4,1.3191E4,6.68E3,9.679E3,7.299E3,8.415E3,5.525E3,5.574E3,6.113E3,4.118E3,3.373E3,3.649E3,4.975E3,4.978E3,4.144E3,3.003E3,2.309E3,2.365E3,1.274E3,1.163E3,2E0,4.3E1,1.79E2,1.74E2,2.4E1,1.81E2,4.077E3,3.255E3,8.174E3,4.621E3,7.884E3,2.874E3,5.23E3,4.489E3,3.727E3,6.616E3,4.642E3,8.549E3,2.64E3,4.04E3,2.338E3,7.341E3,2.624E3,4.675E3,5.845E3,2.57E3,1.81E3,3.715E3,2.128E3,3.446E3,2.638E3,3.475E3,1.613E3,2.505E3,2.135E3,1.238E3,1.838E3,1.811E3,2.64E3,2.335E3,2.42E3,2.558E3,2.076E3,2.068E3,1.889E3,1.114E3,9.84E2,1.325E3,1.308E3,1.057E3,6.14E2,6.6E2,5.93E2,5.7E2,7E0,3.6E1,1.31E2,4.8E1,1.36E2,3.8E1,7E0,1.7E1,2.9E1,1.52E2],"tree_param":{"num_deleted":"0","num_feature":"5","num_nodes":"119","size_leaf_vector":"1"}},{"base_weights":[1.2505457E-2,-2.9687603E0,1.4973362E1,-5.492774E0,1.0969044E0,1.3300616E1,8.1234474E1,-6.9576783E0,-3.8516824E0,-5.372195E-1,3.64583E0,1.01924925E1,2.1622496E1,5.8667957E1,1.2312558E2,-7.826797E0,-6.1030746E0,-4.5626626E0,-3.039296E0,-1.3362684E0,5.548903E-1,2.60606E0,4.869541E0,8.387482E0,1.3234214E1,1.8707178E1,2.657134E1,1.2236891E2,5.389961E1,1.1457255E2,3.2797535E1,-8.701243E0,-7.4541073E0,-6.4875503E0,-5.676873E0,-5.083135E0,-4.213338E0,-3.3388271E0,-2.498445E0,-1.7835819E0,-7.601246E-1,1.2092788E-1,1.1155374E0,2.1581905E0,3.220819E0,4.3603315E0,5.553478E0,7.313609E0,9.667867E0,1.2130241E1,1.4657966E1,1.7337553E1,2.0382809E1,2.4010458E1,2.9353603E1,2.8809132E1,9.758746E1,5.759792E1,2.4937294E0,2.2597522E2,9.8640465E1,-9.1163284E-1,-8.497756E-1,-7.818171E-1,-7.222154E-1,-6.806669E-1,-6.35065E-1,-5.820261E-1,-5.508558E-1,-5.245586E-1,-4.9316344E-1,-4.3730903E-1,-3.9613065E-1,-3.5210297E-1,-3.0292806E-1,-2.6889494E-1,-2.3772418E-1,-2.0928839E-1,-1.589042E-1,-9.271333E-2,-4.8978187E-2,-5.95548E-3,4.3144386E-2,7.367777E-2,1.22112505E-1,1.8666397E-1,2.508999E-1,2.961261E-1,3.3871123E-1,3.981385E-1,4.665764E-1,5.1011145E-1,5.674243E-1,6.901961E-1,8.2108307E-1,9.040205E-1,1.0273609E0,1.146161E0,1.2630166E0,1.3912343E0,1.5201917E0,1.6624676E0,1.8039607E0,1.9655898E0,2.18142E0,2.3095143E0,2.4825752E0,2.7618718E0,3.1106966E0,1.3237548E1,7.6704597E0,4.3618026E0,7.5352373E0,4.673625E0,2.9308279E1,2.86814E0,1.1171322E1],"categories":[],"categories_nodes":[],"categories_segments":[],"categories_sizes":[],"default_left":[0,0,0,0,0,0,0,0,0,0,0,0,0,0,0,0,0,0,0,0,0,0,0,0,0,0,0,0,0,0,0,0,0,0,0,0,0,0,0,0,0,0,0,0,0,0,0,0,0,0,0,0,0,0,0,0,0,0,0,0,0,0,0,0,0,0,0,0,0,0,0,0,0,0,0,0,0,0,0,0,0,0,0,0,0,0,0,0,0,0,0,0,0,0,0,0,0,0,0,0,0,0,0,0,0,0,0,0,0,0,0,0,0,0,0,0,0],"id":11,"left_children":[1,3,5,7,9,11,13,15,17,19,21,23,25,27,29,31,33,35,37,39,41,43,45,47,49,51,53,55,57,59,-1,61,63,65,67,69,71,73,75,77,79,81,83,85,87,89,91,93,95,97,99,101,103,105,107,-1,109,111,-1,113,115,-1,-1,-1,-1,-1,-1,-1,-1,-1,-1,-1,-1,-1,-1,-1,-1,-1,-1,-1,-1,-1,-1,-1,-1,-1,-1,-1,-1,-1,-1,-1,-1,-1,-1,-1,-1,-1,-1,-1,-1,-1,-1,-1,-1,-1,-1,-1,-1,-1,-1,-1,-1,-1,-1,-1,-1],"loss_changes":[6.662957E6,1.278256E6,2.75014E6,1.84731E5,1.9873484E5,6.260335E5,5.70377E5,3.011175E4,2.0923188E4,2.5372143E4,2.3703156E4,9.668375E4,9.44785E4,1.146E5,3.356175E5,6.494875E3,3.3188125E3,3.492875E3,2.7329062E3,4.325709E3,2.988803E3,2.7681172E3,2.9572969E3,1.51460625E4,1.01395E4,9.161625E3,1.6666E4,8.2770625E4,3.851625E4,3.4333425E5,0E0,4.3009375E2,1.135875E3,4.2678125E2,2.0253125E2,1.650625E2,4.4860938E2,6.033594E2,1.3295312E2,5.6535547E2,3.3094385E2,3.8817783E2,2.1345947E2,5.9200977E2,1.7323828E2,5.4996094E2,1.7045312E2,2.167875E3,1.82525E3,1.093E3,9.4925E2,8.451875E2,1.5055625E3,3.78125E2,2.681625E3,0E0,8.0080156E3,7.8621125E4,0E0,2.8700975E5,1.6324538E5,0E0,0E0,0E0,0E0,0E0,0E0,0E0,0E0,0E0,0E0,0E0,0E0,0E0,0E0,0E0,0E0,0E0,0E0,0E0,0E0,0E0,0E0,0E0,0E0,0E0,0E0,0E0,0E0,0E0,0E0,0E0,0E0,0E0,0E0,0E0,0E0,0E0,0E0,0E0,0E0,0E0,0E0,0E0,0E0,0E0,0E0,0E0,0E0,0E0,0E0,0E0,0E0,0E0,0E0,0E0,0E0],"parents":[2147483647,0,0,1,1,2,2,3,3,4,4,5,5,6,6,7,7,8,8,9,9,10,10,11,11,12,12,13,13,14,14,15,15,16,16,17,17,18,18,19,19,20,20,21,21,22,22,23,23,24,24,25,25,26,26,27,27,28,28,29,29,31,31,32,32,33,33,34,34,35,35,36,36,37,37,38,38,39,39,40,40,41,41,42,42,43,43,44,44,45,45,46,46,47,47,48,48,49,49,50,50,51,51,52,52,53,53,54,54,56,56,57,57,59,59,60,60],"right_children":[2,4,6,8,10,12,14,16,18,20,22,24,26,28,30,32,34,36,38,40,42,44,46,48,50,52,54,56,58,60,-1,62,64,66,68,70,72,74,76,78,80,82,84,86,88,90,92,94,96,98,100,102,104,106,108,-1,110,112,-1,114,116,-1,-1,-1,-1,-1,-1,-1,-1,-1,-1,-1,-1,-1,-1,-1,-1,-1,-1,-1,-1,-1,-1,-1,-1,-1,-1,-1,-1,-1,-1,-1,-1,-1,-1,-1,-1,-1,-1,-1,-1,-1,-1,-1,-1,-1,-1,-1,-1,-1,-1,-1,-1,-1,-1,-1,-1],"split_conditions":[3.3333332E1,1.5333333E1,9.0666664E1,8.666667E0,2.3333334E1,5.4E1,1.3E1,5.3333335E0,1.2E1,1.9333334E1,2.8E1,4.3333332E1,6.7333336E1,1E0,6.54E2,2.6666667E0,7.306667E0,1E1,1.4E1,1.7333334E1,2.1333334E1,2.6E1,3.0666666E1,3.8E1,4.8666668E1,6E1,7.5333336E1,9E0,9E1,1.8E1,3.2797535E1,1.3333334E0,4E0,5.82E0,8E0,9.333333E0,1.0846666E1,1.3333333E1,1.4666667E1,1.5906667E1,1.8666666E1,2.0366667E1,2.2E1,2.4666666E1,2.6666666E1,2.9333334E1,3.1333334E1,3.6666668E1,4.0666668E1,4.5333332E1,5.0666668E1,5.6666668E1,6.4666664E1,7.0666664E1,8.2E1,2.8809132E1,7.9E1,8.4E1,2.4937294E0,7E1,1E1,-9.1163284E-1,-8.497756E-1,-7.818171E-1,-7.222154E-1,-6.806669E-1,-6.35065E-1,-5.820261E-1,-5.508558E-1,-5.245586E-1,-4.9316344E-1,-4.3730903E-1,-3.9613065E-1,-3.5210297E-1,-3.0292806E-1,-2.6889494E-1,-2.3772418E-1,-2.0928839E-1,-1.589042E-1,-9.271333E-2,-4.8978187E-2,-5.95548E-3,4.3144386E-2,7.367777E-2,1.22112505E-1,1.8666397E-1,2.508999E-1,2.961261E-1,3.3871123E-1,3.981385E-1,4.665764E-1,5.1011145E-1,5.674243E-1,6.901961E-1,8.2108307E-1,9.040205E-1,1.0273609E0,1.146161E0,1.2630166E0,1.3912343E0,1.5201917E0,1.6624676E0,1.8039607E0,1.9655898E0,2.18142E0,2.3095143E0,2.4825752E0,2.7618718E0,3.1106966E0,1.3237548E1,7.6704597E0,4.3618026E0,7.5352373E0,4.673625E0,2.9308279E1,2.86814E0,1.1171322E1],"split_indices":[0,0,0,0,0,0,2,0,0,0,0,0,0,2,0,0,0,0,0,0,0,0,0,0,0,0,0,3,1,2,0,0,0,0,0,0,0,0,0,0,0,0,0,0,0,0,0,0,0,0,0,0,0,0,0,0,1,1,0,1,3,0,0,0,0,0,0,0,0,0,0,0,0,0,0,0,0,0,0,0,0,0,0,0,0,0,0,0,0,0,0,0,0,0,0,0,0,0,0,0,0,0,0,0,0,0,0,0,0,0,0,0,0,0,0,0,0],"split_type":[0,0,0,0,0,0,0,0,0,0,0,0,0,0,0,0,0,0,0,0,0,0,0,0,0,0,0,0,0,0,0,0,0,0,0,0,0,0,0,0,0,0,0,0,0,0,0,0,0,0,0,0,0,0,0,0,0,0,0,0,0,0,0,0,0,0,0,0,0,0,0,0,0,0,0,0,0,0,0,0,0,0,0,0,0,0,0,0,0,0,0,0,0,0,0,0,0,0,0,0,0,0,0,0,0,0,0,0,0,0,0,0,0,0,0,0,0],"sum_hessian":[1.49384E5,1.24563E5,2.4821E4,7.6852E4,4.7711E4,2.4211E4,6.1E2,4.0604E4,3.6248E4,2.9073E4,1.8638E4,1.7629E4,6.582E3,3.98E2,2.12E2,2.0127E4,2.0477E4,1.9328E4,1.692E4,1.6789E4,1.2284E4,1.0078E4,8.56E3,1.1066E4,6.563E3,4.145E3,2.437E3,2.6E1,3.72E2,2.05E2,7E0,6.008E3,1.4119E4,1.0758E4,9.719E3,7.757E3,1.1571E4,1.0886E4,6.034E3,9.45E3,7.339E3,6.925E3,5.359E3,5.833E3,4.245E3,4.911E3,3.649E3,6.022E3,5.044E3,3.702E3,2.861E3,2.287E3,1.858E3,1.274E3,1.163E3,2E0,2.4E1,3.29E2,4.3E1,2.4E1,1.81E2,1.962E3,4.046E3,5.482E3,8.637E3,3.215E3,7.543E3,5.23E3,4.489E3,3.727E3,4.03E3,7.072E3,4.499E3,6.846E3,4.04E3,2.338E3,3.696E3,3.645E3,5.805E3,4.535E3,2.804E3,4.38E3,2.545E3,1.17E3,4.189E3,3.189E3,2.644E3,1.665E3,2.58E3,2.198E3,2.713E3,7.78E2,2.871E3,4.134E3,1.888E3,2.485E3,2.559E3,1.594E3,2.108E3,1.218E3,1.643E3,1.147E3,1.14E3,1.242E3,6.16E2,6.14E2,6.6E2,5.93E2,5.7E2,7E0,1.7E1,1.86E2,1.43E2,7E0,1.7E1,2.9E1,1.52E2],"tree_param":{"num_deleted":"0","num_feature":"5","num_nodes":"117","size_leaf_vector":"1"}},{"base_weights":[1.2365851E-2,-2.709177E0,1.3299028E1,-4.94361E0,9.3394E-1,1.1818277E1,7.334822E1,-6.262051E0,-3.466597E0,-4.8350728E-1,3.215269E0,8.898633E0,1.9073032E1,5.2961834E1,1.1119245E2,-7.2501225E0,-5.6513386E0,-4.1064916E0,-2.7354352E0,-1.202672E0,4.994198E-1,2.34556E0,4.3125114E0,7.212178E0,1.1381535E1,1.6542013E1,2.3918581E1,9.798932E1,4.6961197E1,1.516461E2,7.473141E1,-7.8314123E0,-6.8816395E0,-6.104354E0,-5.20104E0,-4.574952E0,-3.7920754E0,-3.0050046E0,-2.2486846E0,-1.6052624E0,-6.841318E-1,1.0884005E-1,1.0040197E0,1.9424459E0,2.8988864E0,3.7682598E0,4.7751293E0,6.107831E0,8.104664E0,1.0404801E1,1.2725469E1,1.5035527E1,1.8005852E1,2.1613169E1,2.6423288E1,2.6888523E1,8.41103E1,5.783202E1,3.5511425E1,3.8566814E1,1.8121698E2,6.817351E1,2.946491E1,-8.2051605E-1,-7.64819E-1,-7.036496E-1,-6.668555E-1,-6.260241E-1,-5.8414435E-1,-5.335134E-1,-4.9578252E-1,-4.7211677E-1,-4.4385925E-1,-3.9358425E-1,-3.565263E-1,-3.1689787E-1,-2.7264267E-1,-2.4201702E-1,-2.1395817E-1,-1.7627661E-1,-1.2944035E-1,-8.344414E-2,-4.408205E-2,-1.727018E-2,2.7498681E-2,8.5810654E-2,1.2369799E-1,1.6800337E-1,2.2581935E-1,2.665311E-1,3.048533E-1,3.5023266E-1,3.9581022E-1,4.4666988E-1,5.043884E-1,5.458044E-1,6.449296E-1,7.5544345E-1,8.802883E-1,9.63071E-1,1.083198E0,1.230443E0,1.3427746E0,1.429777E0,1.5572221E0,1.7114391E0,1.9091781E0,2.078938E0,2.2346933E0,2.4861495E0,2.8001716E0,9.623778E0,5.9187946E0,1.9824078E0,6.8204265E0,2.3132398E0,4.261601E0,-5.74927E0,7.020153E0,-1.6464029E-1,2.0184448E1,1.7437107E1,5.3686094E0],"categories":[],"categories_nodes":[],"categories_segments":[],"categories_sizes":[],"default_left":[0,0,0,0,0,0,0,0,0,0,0,0,0,0,0,0,0,0,0,0,0,0,0,0,0,0,0,0,0,0,0,0,0,0,0,0,0,0,0,0,0,0,0,0,0,0,0,0,0,0,0,0,0,0,0,0,0,0,0,0,0,0,0,0,0,0,0,0,0,0,0,0,0,0,0,0,0,0,0,0,0,0,0,0,0,0,0,0,0,0,0,0,0,0,0,0,0,0,0,0,0,0,0,0,0,0,0,0,0,0,0,0,0,0,0,0,0,0,0,0,0,0,0],"id":12,"left_children":[1,3,5,7,9,11,13,15,17,19,21,23,25,27,29,31,33,35,37,39,41,43,45,47,49,51,53,55,57,59,61,63,65,67,69,71,73,75,77,79,81,83,85,87,89,91,93,95,97,99,101,103,105,107,109,-1,111,113,115,117,119,121,-1,-1,-1,-1,-1,-1,-1,-1,-1,-1,-1,-1,-1,-1,-1,-1,-1,-1,-1,-1,-1,-1,-1,-1,-1,-1,-1,-1,-1,-1,-1,-1,-1,-1,-1,-1,-1,-1,-1,-1,-1,-1,-1,-1,-1,-1,-1,-1,-1,-1,-1,-1,-1,-1,-1,-1,-1,-1,-1,-1,-1],"loss_changes":[5.40183E6,1.0093125E6,2.2573805E6,1.4963838E5,1.5242675E5,5.2485125E5,4.65502E5,2.446125E4,1.6948438E4,2.055262E4,1.7228031E4,7.3932625E4,8.6827E4,1.03205625E5,3.028385E5,3.2676875E3,5.08825E3,2.8296562E3,2.2135E3,3.5039707E3,2.4210989E3,2.2425312E3,1.9927188E3,1.0328E4,9.2505E3,1.0038875E4,1.3506875E4,8.648994E4,4.2008125E4,3.2739625E5,1.4432331E5,3.4871875E2,2.6653125E2,4.7596875E2,3.8428125E2,1.3373438E2,3.633125E2,4.886797E2,1.07734375E2,4.6045117E2,2.680708E2,3.240268E2,1.8113574E2,4.7958594E2,1.4028906E2,1.7161719E2,3.349922E2,1.0098594E3,2.1694375E3,1.2663438E3,7.2303125E2,6.9196875E2,1.9636875E3,3.061875E2,2.173375E3,0E0,7.6026562E3,6.960881E4,1.44050625E4,7.0890016E4,2.98322E5,1.6295384E5,0E0,0E0,0E0,0E0,0E0,0E0,0E0,0E0,0E0,0E0,0E0,0E0,0E0,0E0,0E0,0E0,0E0,0E0,0E0,0E0,0E0,0E0,0E0,0E0,0E0,0E0,0E0,0E0,0E0,0E0,0E0,0E0,0E0,0E0,0E0,0E0,0E0,0E0,0E0,0E0,0E0,0E0,0E0,0E0,0E0,0E0,0E0,0E0,0E0,0E0,0E0,0E0,0E0,0E0,0E0,0E0,0E0,0E0,0E0,0E0,0E0],"parents":[2147483647,0,0,1,1,2,2,3,3,4,4,5,5,6,6,7,7,8,8,9,9,10,10,11,11,12,12,13,13,14,14,15,15,16,16,17,17,18,18,19,19,20,20,21,21,22,22,23,23,24,24,25,25,26,26,27,27,28,28,29,29,30,30,31,31,32,32,33,33,34,34,35,35,36,36,37,37,38,38,39,39,40,40,41,41,42,42,43,43,44,44,45,45,46,46,47,47,48,48,49,49,50,50,51,51,52,52,53,53,54,54,56,56,57,57,58,58,59,59,60,60,61,61],"right_children":[2,4,6,8,10,12,14,16,18,20,22,24,26,28,30,32,34,36,38,40,42,44,46,48,50,52,54,56,58,60,62,64,66,68,70,72,74,76,78,80,82,84,86,88,90,92,94,96,98,100,102,104,106,108,110,-1,112,114,116,118,120,122,-1,-1,-1,-1,-1,-1,-1,-1,-1,-1,-1,-1,-1,-1,-1,-1,-1,-1,-1,-1,-1,-1,-1,-1,-1,-1,-1,-1,-1,-1,-1,-1,-1,-1,-1,-1,-1,-1,-1,-1,-1,-1,-1,-1,-1,-1,-1,-1,-1,-1,-1,-1,-1,-1,-1,-1,-1,-1,-1,-1,-1],"split_conditions":[3.2666668E1,1.5333333E1,9.0666664E1,8.666667E0,2.3333334E1,5.2666668E1,1.3E1,4.6666665E0,1.2E1,1.9333334E1,2.8E1,4.2E1,6.7333336E1,2E0,2.1E1,2.6666667E0,6.346667E0,1E1,1.4E1,1.7333334E1,2.1333334E1,2.6E1,3E1,3.6666668E1,4.7333332E1,5.8666668E1,7.5333336E1,9E0,2E0,7E0,1.2E1,1.3333334E0,4E0,5.82E0,8E0,9.333333E0,1.0846666E1,1.3333333E1,1.4666667E1,1.6666666E1,1.8666666E1,2E1,2.2273333E1,2.4666666E1,2.6666666E1,2.8666666E1,3.1333334E1,3.4E1,3.9333332E1,4.4E1,5.0666668E1,5.5333332E1,6.2666668E1,7.0666664E1,8.2E1,2.6888523E1,8.7E1,6E0,3E0,2E0,7E1,7.3E1,2.946491E1,-8.2051605E-1,-7.64819E-1,-7.036496E-1,-6.668555E-1,-6.260241E-1,-5.8414435E-1,-5.335134E-1,-4.9578252E-1,-4.7211677E-1,-4.4385925E-1,-3.9358425E-1,-3.565263E-1,-3.1689787E-1,-2.7264267E-1,-2.4201702E-1,-2.1395817E-1,-1.7627661E-1,-1.2944035E-1,-8.344414E-2,-4.408205E-2,-1.727018E-2,2.7498681E-2,8.5810654E-2,1.2369799E-1,1.6800337E-1,2.2581935E-1,2.665311E-1,3.048533E-1,3.5023266E-1,3.9581022E-1,4.4666988E-1,5.043884E-1,5.458044E-1,6.449296E-1,7.5544345E-1,8.802883E-1,9.63071E-1,1.083198E0,1.230443E0,1.3427746E0,1.429777E0,1.5572221E0,1.7114391E0,1.9091781E0,2.078938E0,2.2346933E0,2.4861495E0,2.8001716E0,9.623778E0,5.9187946E0,1.9824078E0,6.8204265E0,2.3132398E0,4.261601E0,-5.74927E0,7.020153E0,-1.6464029E-1,2.0184448E1,1.7437107E1,5.3686094E0],"split_indices":[0,0,0,0,0,0,2,0,0,0,0,0,0,2,2,0,0,0,0,0,0,0,0,0,0,0,0,3,3,3,3,0,0,0,0,0,0,0,0,0,0,0,0,0,0,0,0,0,0,0,0,0,0,0,0,0,1,2,3,3,1,1,0,0,0,0,0,0,0,0,0,0,0,0,0,0,0,0,0,0,0,0,0,0,0,0,0,0,0,0,0,0,0,0,0,0,0,0,0,0,0,0,0,0,0,0,0,0,0,0,0,0,0,0,0,0,0,0,0,0,0,0,0],"split_type":[0,0,0,0,0,0,0,0,0,0,0,0,0,0,0,0,0,0,0,0,0,0,0,0,0,0,0,0,0,0,0,0,0,0,0,0,0,0,0,0,0,0,0,0,0,0,0,0,0,0,0,0,0,0,0,0,0,0,0,0,0,0,0,0,0,0,0,0,0,0,0,0,0,0,0,0,0,0,0,0,0,0,0,0,0,0,0,0,0,0,0,0,0,0,0,0,0,0,0,0,0,0,0,0,0,0,0,0,0,0,0,0,0,0,0,0,0,0,0,0,0,0,0],"sum_hessian":[1.49384E5,1.23988E5,2.5396E4,7.6852E4,4.7136E4,2.4786E4,6.1E2,4.0604E4,3.6248E4,2.9073E4,1.8063E4,1.7675E4,7.111E3,3.98E2,2.12E2,1.5506E4,2.5098E4,1.9328E4,1.692E4,1.6789E4,1.2284E4,1.0078E4,7.985E3,1.0528E4,7.147E3,4.674E3,2.437E3,4.5E1,3.53E2,9.9E1,1.13E2,6.008E3,9.498E3,1.2505E4,1.2593E4,7.757E3,1.1571E4,1.0886E4,6.034E3,9.45E3,7.339E3,6.925E3,5.359E3,5.833E3,4.245E3,3.673E3,4.312E3,4.709E3,5.819E3,4.144E3,3.003E3,2.309E3,2.365E3,1.274E3,1.163E3,2E0,4.3E1,1.79E2,1.74E2,2.1E1,7.8E1,1.11E2,2E0,1.962E3,4.046E3,5.482E3,4.016E3,7.836E3,4.669E3,8.104E3,4.489E3,3.727E3,4.03E3,7.072E3,4.499E3,6.846E3,4.04E3,2.338E3,3.696E3,6.269E3,3.181E3,4.535E3,2.804E3,2.57E3,4.355E3,3.298E3,2.061E3,3.189E3,2.644E3,1.665E3,2.58E3,1.538E3,2.135E3,2.016E3,2.296E3,1.628E3,3.081E3,3.261E3,2.558E3,1.482E3,2.662E3,1.889E3,1.114E3,9.84E2,1.325E3,1.308E3,1.057E3,6.14E2,6.6E2,5.93E2,5.7E2,2.7E1,1.6E1,3.9E1,1.4E2,6.5E1,1.09E2,5E0,1.6E1,8E0,7E1,1.2E1,9.9E1],"tree_param":{"num_deleted":"0","num_feature":"5","num_nodes":"123","size_leaf_vector":"1"}},{"base_weights":[1.2130617E-2,-2.4048285E0,1.2141132E1,-4.325217E0,1.1032352E0,1.0775716E1,6.622841E1,-5.635974E0,-2.9909909E0,-1.711815E-1,3.0837097E0,8.116646E0,1.7168007E1,4.615772E1,9.770638E1,-6.3421397E0,-4.9416027E0,-3.563711E0,-2.1669102E0,-7.857691E-1,6.98946E-1,2.374178E0,4.1170063E0,6.58815E0,1.0244027E1,1.4889225E1,2.1530659E1,8.91128E1,4.0030167E1,9.088471E1,2.8161612E1,-6.954574E0,-5.990676E0,-5.255838E0,-4.59327E0,-4.024027E0,-3.2141662E0,-2.546205E0,-1.9049022E0,-1.2079709E0,-4.1945982E-1,3.174547E-1,1.0769589E0,1.8797004E0,2.754115E0,3.7015133E0,4.4999537E0,5.7487087E0,7.4338856E0,9.364815E0,1.1453778E1,1.3533268E1,1.6206795E1,1.9455233E1,2.37855E1,2.5095953E1,7.6052505E1,2.4724255E1,4.7467365E1,2.7911259E1,1.0647638E2,-7.1913165E-1,-6.6458786E-1,-6.139443E-1,-5.7262546E-1,-5.3571856E-1,-4.9760532E-1,-4.7049356E-1,-4.4621524E-1,-4.249178E-1,-3.892801E-1,-3.4482107E-1,-3.0814937E-1,-2.686551E-1,-2.453852E-1,-2.1782558E-1,-1.8175583E-1,-1.4179774E-1,-1.0898197E-1,-6.632644E-2,-2.8139973E-2,9.2839245E-3,4.325962E-2,8.82226E-2,1.2011775E-1,1.7230763E-1,2.1068962E-1,2.5148275E-1,3.0661145E-1,3.562478E-1,3.938219E-1,4.3027288E-1,4.6976337E-1,5.336822E-1,6.2072027E-1,6.908677E-1,7.9229397E-1,8.8308185E-1,9.896351E-1,1.085513E0,1.1857646E0,1.2869443E0,1.4016174E0,1.5660415E0,1.773023E0,1.871382E0,2.0115619E0,2.237953E0,2.520645E0,1.1237183E1,6.6144214E0,2.7803128E0,9.4791645E-1,6.4901023E0,3.2253196E0,4.2869554E0,-1.4508085E0,2.292084E1,8.83942E0],"categories":[],"categories_nodes":[],"categories_segments":[],"categories_sizes":[],"default_left":[0,0,0,0,0,0,0,0,0,0,0,0,0,0,0,0,0,0,0,0,0,0,0,0,0,0,0,0,0,0,0,0,0,0,0,0,0,0,0,0,0,0,0,0,0,0,0,0,0,0,0,0,0,0,0,0,0,0,0,0,0,0,0,0,0,0,0,0,0,0,0,0,0,0,0,0,0,0,0,0,0,0,0,0,0,0,0,0,0,0,0,0,0,0,0,0,0,0,0,0,0,0,0,0,0,0,0,0,0,0,0,0,0,0,0,0,0,0,0],"id":13,"left_children":[1,3,5,7,9,11,13,15,17,19,21,23,25,27,29,31,33,35,37,39,41,43,45,47,49,51,53,55,57,59,-1,61,63,65,67,69,71,73,75,77,79,81,83,85,87,89,91,93,95,97,99,101,103,105,107,-1,109,111,113,115,117,-1,-1,-1,-1,-1,-1,-1,-1,-1,-1,-1,-1,-1,-1,-1,-1,-1,-1,-1,-1,-1,-1,-1,-1,-1,-1,-1,-1,-1,-1,-1,-1,-1,-1,-1,-1,-1,-1,-1,-1,-1,-1,-1,-1,-1,-1,-1,-1,-1,-1,-1,-1,-1,-1,-1,-1,-1,-1],"loss_changes":[4.3792955E6,8.391731E5,1.832432E6,1.4076175E5,1.1122344E5,4.1140525E5,3.8151075E5,1.9878875E4,1.8820938E4,1.433986E4,1.2640094E4,5.553975E4,7.0383625E4,9.5136375E4,2.7173875E5,4.2909375E3,2.2174062E3,3.773875E3,1.6209844E3,2.429919E3,1.600374E3,1.9171133E3,1.1007891E3,7.0240312E3,7.4955E3,8.132875E3,1.09465E4,7.8147125E4,3.6391312E4,2.2285625E5,0E0,4.8809375E2,4.681875E2,2.784375E2,1.21328125E2,2.8346875E2,4.0490625E2,8.000391E1,2.2716016E2,1.7958496E2,2.8309326E2,1.4287634E2,1.3379639E2,1.5468457E2,4.2410938E2,9.701172E1,1.2209375E2,9.111094E2,1.218E3,1.0890938E3,5.975625E2,5.6009375E2,1.69175E3,2.478125E2,1.7613125E3,0E0,8.401203E3,4.8996016E3,5.65245E4,3.0444438E4,3.880835E5,0E0,0E0,0E0,0E0,0E0,0E0,0E0,0E0,0E0,0E0,0E0,0E0,0E0,0E0,0E0,0E0,0E0,0E0,0E0,0E0,0E0,0E0,0E0,0E0,0E0,0E0,0E0,0E0,0E0,0E0,0E0,0E0,0E0,0E0,0E0,0E0,0E0,0E0,0E0,0E0,0E0,0E0,0E0,0E0,0E0,0E0,0E0,0E0,0E0,0E0,0E0,0E0,0E0,0E0,0E0,0E0,0E0,0E0],"parents":[2147483647,0,0,1,1,2,2,3,3,4,4,5,5,6,6,7,7,8,8,9,9,10,10,11,11,12,12,13,13,14,14,15,15,16,16,17,17,18,18,19,19,20,20,21,21,22,22,23,23,24,24,25,25,26,26,27,27,28,28,29,29,31,31,32,32,33,33,34,34,35,35,36,36,37,37,38,38,39,39,40,40,41,41,42,42,43,43,44,44,45,45,46,46,47,47,48,48,49,49,50,50,51,51,52,52,53,53,54,54,56,56,57,57,58,58,59,59,60,60],"right_children":[2,4,6,8,10,12,14,16,18,20,22,24,26,28,30,32,34,36,38,40,42,44,46,48,50,52,54,56,58,60,-1,62,64,66,68,70,72,74,76,78,80,82,84,86,88,90,92,94,96,98,100,102,104,106,108,-1,110,112,114,116,118,-1,-1,-1,-1,-1,-1,-1,-1,-1,-1,-1,-1,-1,-1,-1,-1,-1,-1,-1,-1,-1,-1,-1,-1,-1,-1,-1,-1,-1,-1,-1,-1,-1,-1,-1,-1,-1,-1,-1,-1,-1,-1,-1,-1,-1,-1,-1,-1,-1,-1,-1,-1,-1,-1,-1,-1,-1,-1],"split_conditions":[3.3333332E1,1.5906667E1,9.0666664E1,8.666667E0,2.4E1,5.2666668E1,1E1,5.3333335E0,1.2666667E1,2E1,2.8666666E1,4.2E1,6.7333336E1,2E0,6.54E2,3.3333333E0,7.306667E0,1.02E1,1.4E1,1.8E1,2.2E1,2.6E1,3.0666666E1,3.7333332E1,4.7333332E1,5.8666668E1,7.5333336E1,9E0,8.1E1,7.1E1,2.8161612E1,2E0,4.6666665E0,6.346667E0,8E0,9.333333E0,1.1333333E1,1.3333333E1,1.4666667E1,1.6666666E1,1.8666666E1,2.0666666E1,2.2666666E1,2.5333334E1,2.7333334E1,3E1,3.2E1,3.5066666E1,3.9333332E1,4.4666668E1,4.9333332E1,5.5333332E1,6.4666664E1,7.0666664E1,8.2E1,2.5095953E1,7.9E1,8E1,2E0,2E1,1.8E1,-7.1913165E-1,-6.6458786E-1,-6.139443E-1,-5.7262546E-1,-5.3571856E-1,-4.9760532E-1,-4.7049356E-1,-4.4621524E-1,-4.249178E-1,-3.892801E-1,-3.4482107E-1,-3.0814937E-1,-2.686551E-1,-2.453852E-1,-2.1782558E-1,-1.8175583E-1,-1.4179774E-1,-1.0898197E-1,-6.632644E-2,-2.8139973E-2,9.2839245E-3,4.325962E-2,8.82226E-2,1.2011775E-1,1.7230763E-1,2.1068962E-1,2.5148275E-1,3.0661145E-1,3.562478E-1,3.938219E-1,4.3027288E-1,4.6976337E-1,5.336822E-1,6.2072027E-1,6.908677E-1,7.9229397E-1,8.8308185E-1,9.896351E-1,1.085513E0,1.1857646E0,1.2869443E0,1.4016174E0,1.5660415E0,1.773023E0,1.871382E0,2.0115619E0,2.237953E0,2.520645E0,1.1237183E1,6.6144214E0,2.7803128E0,9.4791645E-1,6.4901023E0,3.2253196E0,4.2869554E0,-1.4508085E0,2.292084E1,8.83942E0],"split_indices":[0,0,0,0,0,0,2,0,0,0,0,0,0,2,0,0,0,0,0,0,0,0,0,0,0,0,0,3,1,1,0,0,0,0,0,0,0,0,0,0,0,0,0,0,0,0,0,0,0,0,0,0,0,0,0,0,1,1,3,2,2,0,0,0,0,0,0,0,0,0,0,0,0,0,0,0,0,0,0,0,0,0,0,0,0,0,0,0,0,0,0,0,0,0,0,0,0,0,0,0,0,0,0,0,0,0,0,0,0,0,0,0,0,0,0,0,0,0,0],"split_type":[0,0,0,0,0,0,0,0,0,0,0,0,0,0,0,0,0,0,0,0,0,0,0,0,0,0,0,0,0,0,0,0,0,0,0,0,0,0,0,0,0,0,0,0,0,0,0,0,0,0,0,0,0,0,0,0,0,0,0,0,0,0,0,0,0,0,0,0,0,0,0,0,0,0,0,0,0,0,0,0,0,0,0,0,0,0,0,0,0,0,0,0,0,0,0,0,0,0,0,0,0,0,0,0,0,0,0,0,0,0,0,0,0,0,0,0,0,0,0],"sum_hessian":[1.49384E5,1.24563E5,2.4821E4,8.0497E4,4.4066E4,2.4211E4,6.1E2,4.0604E4,3.9893E4,2.6813E4,1.7253E4,1.71E4,7.111E3,3.74E2,2.36E2,2.0127E4,2.0477E4,2.3534E4,1.6359E4,1.5714E4,1.1099E4,1.0231E4,7.022E3,9.953E3,7.147E3,4.674E3,2.437E3,4.5E1,3.29E2,2.29E2,7E0,7.332E3,1.2795E4,1.0758E4,9.719E3,1.0153E4,1.3381E4,6.68E3,9.679E3,7.299E3,8.415E3,5.525E3,5.574E3,4.448E3,5.783E3,3.373E3,3.649E3,4.999E3,4.954E3,4.144E3,3.003E3,2.309E3,2.365E3,1.274E3,1.163E3,2E0,4.3E1,1.09E2,2.2E2,4.6E1,1.83E2,4.137E3,3.195E3,8.174E3,4.621E3,7.884E3,2.874E3,5.23E3,4.489E3,3.727E3,6.426E3,4.832E3,8.549E3,2.64E3,4.04E3,2.338E3,7.341E3,2.624E3,4.675E3,3.041E3,5.374E3,1.873E3,3.652E3,2.174E3,3.4E3,2.638E3,1.81E3,3.278E3,2.505E3,2.135E3,1.238E3,1.838E3,1.811E3,2.64E3,2.359E3,2.396E3,2.558E3,2.076E3,2.068E3,1.221E3,1.782E3,9.84E2,1.325E3,1.749E3,6.16E2,6.14E2,6.6E2,5.93E2,5.7E2,7E0,3.6E1,9E1,1.9E1,1.01E2,1.19E2,3.4E1,1.2E1,2.2E1,1.61E2],"tree_param":{"num_deleted":"0","num_feature":"5","num_nodes":"119","size_leaf_vector":"1"}},{"base_weights":[1.1829282E-2,-2.109038E0,1.1220419E1,-3.892781E0,1.0733613E0,9.938252E0,5.9800575E1,-5.0724883E0,-2.6919513E0,-1.5406646E-1,2.8710983E0,7.7305303E0,1.6072716E1,5.708999E1,2.569747E1,-5.7080536E0,-4.447538E0,-3.2074022E0,-1.9502751E0,-7.072144E-1,6.2907535E-1,2.1368525E0,3.8010056E0,6.346593E0,9.890183E0,1.4309491E1,2.0225462E1,4.169232E1,8.194666E1,-6.2593055E0,-5.3917017E0,-4.73035E0,-4.1340375E0,-3.6152391E0,-2.8873692E0,-2.2916608E0,-1.714454E0,-1.087208E0,-3.7752572E-1,2.8571928E-1,9.693008E-1,1.8162915E0,2.6121557E0,3.4044814E0,4.219494E0,5.6916623E0,7.373041E0,8.946525E0,1.0835696E1,1.3228586E1,1.6003746E1,1.9087025E1,2.269022E0,8.113516E1,3.606789E1,2.5180475E1,9.600136E1,-6.666298E-1,-6.109392E-1,-5.65705E-1,-5.2633184E-1,-4.9637458E-1,-4.6292067E-1,-4.2345318E-1,-4.0160376E-1,-3.711225E-1,-3.3259955E-1,-2.999435E-1,-2.647315E-1,-2.417997E-1,-2.2085264E-1,-1.8281925E-1,-1.5257196E-1,-1.2762333E-1,-9.808609E-2,-4.875033E-2,-1.2730929E-2,8.356113E-3,3.893488E-2,7.9404406E-2,1.08109556E-1,1.5508355E-1,2.0173047E-1,2.3815644E-1,2.7596268E-1,3.206398E-1,3.612564E-1,4.0883812E-1,4.4017816E-1,5.228876E-1,6.1271673E-1,6.998039E-1,7.669627E-1,8.6384994E-1,9.446689E-1,1.0232682E0,1.1308339E0,1.2615613E0,1.3839415E0,1.4821103E0,1.6415385E0,1.8107103E0,2.0145342E0,2.3422888E1,6.8852973E0,2.547135E0,4.530784E0,3.870508E0,-1.316888E0,2.4752556E1,8.303447E0],"categories":[],"categories_nodes":[],"categories_segments":[],"categories_sizes":[],"default_left":[0,0,0,0,0,0,0,0,0,0,0,0,0,0,0,0,0,0,0,0,0,0,0,0,0,0,0,0,0,0,0,0,0,0,0,0,0,0,0,0,0,0,0,0,0,0,0,0,0,0,0,0,0,0,0,0,0,0,0,0,0,0,0,0,0,0,0,0,0,0,0,0,0,0,0,0,0,0,0,0,0,0,0,0,0,0,0,0,0,0,0,0,0,0,0,0,0,0,0,0,0,0,0,0,0,0,0,0,0,0,0],"id":14,"left_children":[1,3,5,7,9,11,13,15,17,19,21,23,25,27,-1,29,31,33,35,37,39,41,43,45,47,49,51,53,55,57,59,61,63,65,67,69,71,73,75,77,79,81,83,85,87,89,91,93,95,97,99,101,-1,103,105,107,109,-1,-1,-1,-1,-1,-1,-1,-1,-1,-1,-1,-1,-1,-1,-1,-1,-1,-1,-1,-1,-1,-1,-1,-1,-1,-1,-1,-1,-1,-1,-1,-1,-1,-1,-1,-1,-1,-1,-1,-1,-1,-1,-1,-1,-1,-1,-1,-1,-1,-1,-1,-1,-1,-1],"loss_changes":[3.5511935E6,7.130795E5,1.479926E6,1.14022E5,9.956188E4,3.135225E5,3.1188275E5,1.610275E4,1.5245094E4,1.161609E4,1.2491547E4,5.0842938E4,4.4581125E4,2.2775525E5,0E0,3.4764375E3,1.7960625E3,3.061375E3,1.3131484E3,1.9683589E3,1.2964077E3,1.5542461E3,1.3257734E3,6.938E3,5.836375E3,7.6721875E3,4.6850625E3,8.026494E4,1.81084E5,4.0665625E2,4.0615625E2,2.3101562E2,9.825E1,2.7482812E2,3.4695312E2,6.4828125E1,2.0500586E2,1.4549512E2,2.3153113E2,1.1573465E2,1.0837158E2,3.2311523E2,1.334961E2,1.5955469E2,7.58125E1,1.246375E3,3.9576562E2,4.3203125E2,8.29625E2,8.1165625E2,5.7065625E2,9.356875E2,0E0,7.036766E4,3.1156781E4,2.4886717E4,3.4096988E5,0E0,0E0,0E0,0E0,0E0,0E0,0E0,0E0,0E0,0E0,0E0,0E0,0E0,0E0,0E0,0E0,0E0,0E0,0E0,0E0,0E0,0E0,0E0,0E0,0E0,0E0,0E0,0E0,0E0,0E0,0E0,0E0,0E0,0E0,0E0,0E0,0E0,0E0,0E0,0E0,0E0,0E0,0E0,0E0,0E0,0E0,0E0,0E0,0E0,0E0,0E0,0E0,0E0,0E0],"parents":[2147483647,0,0,1,1,2,2,3,3,4,4,5,5,6,6,7,7,8,8,9,9,10,10,11,11,12,12,13,13,15,15,16,16,17,17,18,18,19,19,20,20,21,21,22,22,23,23,24,24,25,25,26,26,27,27,28,28,29,29,30,30,31,31,32,32,33,33,34,34,35,35,36,36,37,37,38,38,39,39,40,40,41,41,42,42,43,43,44,44,45,45,46,46,47,47,48,48,49,49,50,50,51,51,53,53,54,54,55,55,56,56],"right_children":[2,4,6,8,10,12,14,16,18,20,22,24,26,28,-1,30,32,34,36,38,40,42,44,46,48,50,52,54,56,58,60,62,64,66,68,70,72,74,76,78,80,82,84,86,88,90,92,94,96,98,100,102,-1,104,106,108,110,-1,-1,-1,-1,-1,-1,-1,-1,-1,-1,-1,-1,-1,-1,-1,-1,-1,-1,-1,-1,-1,-1,-1,-1,-1,-1,-1,-1,-1,-1,-1,-1,-1,-1,-1,-1,-1,-1,-1,-1,-1,-1,-1,-1,-1,-1,-1,-1,-1,-1,-1,-1,-1,-1],"split_conditions":[3.4E1,1.5906667E1,9.0666664E1,8.666667E0,2.4E1,5.5333332E1,6.54E2,5.3333335E0,1.2666667E1,2E1,2.8666666E1,4.4E1,7.0666664E1,1E1,2.569747E1,3.3333333E0,7.306667E0,1.0666667E1,1.4E1,1.8E1,2.2E1,2.6666666E1,3.1333334E1,3.9333332E1,4.8666668E1,6.2666668E1,8.2E1,2E0,7.1E1,1.3333334E0,4E0,6E0,8E0,1E1,1.2E1,1.3333333E1,1.5333333E1,1.6666666E1,1.9333334E1,2.0666666E1,2.2666666E1,2.5333334E1,2.7333334E1,3E1,3.2666668E1,3.6666668E1,4.1333332E1,4.6666668E1,5.1333332E1,5.8666668E1,6.4666664E1,7.5333336E1,2.269022E0,9E0,8.4E1,2E1,7.3E1,-6.666298E-1,-6.109392E-1,-5.65705E-1,-5.2633184E-1,-4.9637458E-1,-4.6292067E-1,-4.2345318E-1,-4.0160376E-1,-3.711225E-1,-3.3259955E-1,-2.999435E-1,-2.647315E-1,-2.417997E-1,-2.2085264E-1,-1.8281925E-1,-1.5257196E-1,-1.2762333E-1,-9.808609E-2,-4.875033E-2,-1.2730929E-2,8.356113E-3,3.893488E-2,7.9404406E-2,1.08109556E-1,1.5508355E-1,2.0173047E-1,2.3815644E-1,2.7596268E-1,3.206398E-1,3.612564E-1,4.0883812E-1,4.4017816E-1,5.228876E-1,6.1271673E-1,6.998039E-1,7.669627E-1,8.6384994E-1,9.446689E-1,1.0232682E0,1.1308339E0,1.2615613E0,1.3839415E0,1.4821103E0,1.6415385E0,1.8107103E0,2.0145342E0,2.3422888E1,6.8852973E0,2.547135E0,4.530784E0,3.870508E0,-1.316888E0,2.4752556E1,8.303447E0],"split_indices":[0,0,0,0,0,0,0,0,0,0,0,0,0,2,0,0,0,0,0,0,0,0,0,0,0,0,0,2,1,0,0,0,0,0,0,0,0,0,0,0,0,0,0,0,0,0,0,0,0,0,0,0,0,3,1,2,1,0,0,0,0,0,0,0,0,0,0,0,0,0,0,0,0,0,0,0,0,0,0,0,0,0,0,0,0,0,0,0,0,0,0,0,0,0,0,0,0,0,0,0,0,0,0,0,0,0,0,0,0,0,0],"split_type":[0,0,0,0,0,0,0,0,0,0,0,0,0,0,0,0,0,0,0,0,0,0,0,0,0,0,0,0,0,0,0,0,0,0,0,0,0,0,0,0,0,0,0,0,0,0,0,0,0,0,0,0,0,0,0,0,0,0,0,0,0,0,0,0,0,0,0,0,0,0,0,0,0,0,0,0,0,0,0,0,0,0,0,0,0,0,0,0,0,0,0,0,0,0,0,0,0,0,0,0,0,0,0,0,0,0,0,0,0,0,0],